{"parameters": {"alpha": 0.0001, "average": false, "class_weight": {"0": 0.5086520159197093, "1": 29.395}, "early_stopping": false, "epsilon": 0.1, "eta0": 0.0, "fit_intercept": true, "l1_ratio": 0.15, "learning_rate": "optimal", "loss": "log_loss", "max_iter": 3000, "n_iter_no_change": 5, "n_jobs": null, "penalty": "l2", "power_t": 0.5, "random_state": 42, "shuffle": true, "tol": 0.001, "validation_fraction": 0.1, "verbose": 0, "warm_start": false}, "attributes": {"coef": [[2.8812508583068848, 2.4209651947021484, -1.7381083965301514, -0.8617857098579407, -2.484592914581299, 0.671180248260498, -0.45306262373924255, -2.58374285697937, -7.472394943237305, 1.6377540826797485, -2.641249418258667, 1.0957019329071045, 7.072282791137695, -3.1325061321258545, -1.8837310075759888, 4.439311981201172, -3.412515878677368, 4.136064052581787, 4.373363494873047, -0.3311094641685486, -1.6852126121520996, 1.125022292137146, 6.999128818511963, 4.9959516525268555, -1.5456209182739258, 2.8922038078308105, -0.22338642179965973, 1.179890751838684, -4.12658166885376, -1.4362481832504272, -0.49377018213272095, -0.9095194339752197, -2.0067553520202637, 1.3501019477844238, 4.872745990753174, 0.36353105306625366, 13.498448371887207, -4.185640335083008, -3.657388687133789, -6.02467155456543, -3.8106682300567627, -1.742819905281067, 6.172996997833252, 0.9950888156890869, -0.8877630829811096, 1.9771429300308228, 2.8240432739257812, -1.0929161310195923, -1.7573137283325195, 0.4411042630672455, -4.196562767028809, 2.5841686725616455, -1.4654970169067383, -1.487825870513916, -3.1141419410705566, -8.149733543395996, 0.9206610321998596, -4.924129486083984, 1.9709259271621704, 1.5781700611114502, -2.154350996017456, 1.9550516605377197, -1.1758332252502441, -10.345385551452637, -3.965134620666504, 0.800872266292572, 1.2487949132919312, 7.119964599609375, 5.543064594268799, 2.480701208114624, -1.002224326133728, 0.017762072384357452, -1.7234392166137695, 2.1357851028442383, -1.0696500539779663, 1.4932783842086792, 5.459000587463379, 2.0878095626831055, 4.045820236206055, -1.8966022729873657, 2.2068512439727783, 1.7065171003341675, -0.8926724791526794, 0.7327650189399719, 2.3202431201934814, -0.5542370080947876, -0.8872027397155762, -2.5946297645568848, 2.0777413845062256, 0.3487691581249237, -2.4834606647491455, 5.357381343841553, 5.767993450164795, 2.5608668327331543, -2.1890506744384766, 0.37897786498069763, 0.7251561880111694, 0.33734819293022156, -5.474523544311523, 2.9413132667541504, -1.5044910907745361, 4.8949432373046875, -1.351991057395935, -0.31394827365875244, 1.4370981454849243, 4.423202037811279, -7.120532989501953, -0.14642874896526337, 1.4170665740966797, 2.3455910682678223, -3.437364339828491, -0.1091601699590683, 0.7331935167312622, -5.434758186340332, -1.281296730041504, -0.7907110452651978, -2.0108370780944824, 3.775583267211914, -2.1558659076690674, 3.625450611114502, -0.40570664405822754, -1.468248724937439, 0.007260472979396582, -1.821233868598938, -2.648907423019409, -0.2169961780309677, 1.5181509256362915, -5.232588768005371, -3.496739149093628, -2.2205967903137207, 4.4396514892578125, 2.772862195968628, -1.660823106765747, 1.6471201181411743, -3.0962796211242676, 3.797555685043335, -1.3601746559143066, 0.3846563696861267, 2.167747974395752, 8.193687438964844, 0.23511458933353424, -1.4207690954208374, -2.619983434677124, -1.1641532182693481, -3.4936225414276123, -3.4634933471679688, 1.102217674255371, -6.008872985839844, -6.06451940536499, -2.34799861907959, -3.1916465759277344, -3.1402060985565186, 0.15013958513736725, 1.7911771535873413, -3.5941994190216064, 1.6186461448669434, -0.9019545316696167, -0.5897362232208252, -2.503821849822998, 1.4757620096206665, -0.25129151344299316, -2.6727101802825928, 0.655153751373291, -1.7118691205978394, 7.794746398925781, 4.187673568725586, -0.7713021636009216, 8.013448715209961, -5.97927188873291, 4.388908863067627, 0.2939824163913727, 0.3161754310131073, 4.051979064941406, -0.8103244304656982, -1.5456345081329346, -5.584963321685791, 3.7715673446655273, 4.6757965087890625, -0.4212934374809265, -3.261909008026123, 0.1893092393875122, 1.9759305715560913, 1.069079041481018, -0.2798158526420593, 0.6897431015968323, 3.2235279083251953, -10.36020565032959, 5.847532272338867, -3.55161452293396, 2.274509906768799, 5.433889389038086, -2.5495152473449707, 1.998902440071106, -4.329466342926025, -0.5756008625030518, -2.9993786811828613, 0.24179776012897491, 4.655579566955566, -0.7468633055686951, -1.1486059427261353, 0.34769436717033386, 3.393803119659424, -0.2788543701171875, -2.9893689155578613, 2.4579620361328125, -0.5329176783561707, -1.6620502471923828, 1.6043701171875, 0.5533785223960876, 0.4267062544822693, 0.6845723986625671, 2.287991762161255, 4.45460319519043, 0.12343420833349228, -3.141899824142456, -1.1486059427261353, -2.6841495037078857, 0.8607110977172852, -0.7507624626159668, 2.6400551795959473, -13.107385635375977, 1.1828867197036743, 0.9552435278892517, 1.9119230508804321, 5.089863300323486, -3.999816417694092, 1.9913476705551147, -2.51973295211792, -4.67545747756958, -0.4858642816543579, -2.3934600353240967, -1.2840609550476074, 3.2415668964385986, 1.7570948600769043, 3.751025438308716, 0.9832959175109863, -4.638644695281982, -3.739145278930664, -3.5501115322113037, 0.7662290334701538, 2.7546939849853516, -0.514472484588623, 1.1209509372711182, -0.06901507824659348, 1.907514214515686, 1.5612587928771973, 1.954334020614624, -0.010464082472026348, 2.6506476402282715, -0.8594771027565002, 2.2839767932891846, -5.19888973236084, 3.850041389465332, 3.2948334217071533, -2.8095192909240723, -1.0328274965286255, -0.09161916375160217, 6.076764106750488, -0.6946538090705872, -2.782041549682617, -7.006027698516846, 2.429746627807617, -1.4753204584121704, 2.9823179244995117, 9.266427993774414, -3.6106014251708984, 0.7046089172363281, 5.895851135253906, -3.008704423904419, 4.853425979614258, 2.908785581588745, -0.6416743993759155, -1.581023931503296, -1.9415745735168457, 5.700606346130371, 3.6501004695892334, -4.4540839195251465, 1.2129780054092407, -0.44518664479255676, 0.46885713934898376, -6.257712364196777, -0.23699307441711426, -0.21149884164333344, -0.19333460927009583, -2.846423387527466, 0.5973866581916809, 2.072916030883789, 3.024634599685669, 7.447404861450195, -4.922858238220215, -3.2801167964935303, -6.042090892791748, -3.6563286781311035, -2.637061834335327, 4.852306365966797, 1.955078363418579, -1.8025104999542236, -0.7876951098442078, 0.06675048917531967, -0.8898807764053345, 0.8687241077423096, 1.4061652421951294, -3.762833833694458, 3.0875957012176514, -1.681176781654358, -0.9138804078102112, -4.771358489990234, -8.252019882202148, 0.3630668520927429, -8.848584175109863, 1.8828210830688477, 4.250124931335449, -6.328106880187988, 3.6739003658294678, 0.1303161382675171, -12.396240234375, -1.6284065246582031, 0.2927342653274536, 1.0261762142181396, 6.443085193634033, 1.7891719341278076, 4.527738094329834, -1.2011549472808838, -0.5830398797988892, -0.8603732585906982, -1.4360805749893188, -0.2172711342573166, 5.218327045440674, 0.12057904154062271, 2.2537026405334473, 2.6642794609069824, -3.371457576751709, 0.14295139908790588, 0.8316896557807922, -0.0907648503780365, 1.5116987228393555, 1.650101661682129, -0.5476139783859253, -0.1116538792848587, -1.2596515417099, 3.641698122024536, -0.028605466708540916, -1.0475506782531738, 5.211664199829102, 5.005115985870361, -2.3141584396362305, -0.8699951767921448, -0.415092408657074, 1.451283574104309, -2.378261089324951, -5.390904903411865, 3.7281954288482666, 9.303298950195312, 4.582881450653076, -2.528590202331543, -0.7196527719497681, 2.008518934249878, 2.096264600753784, -5.415008544921875, 0.01586291566491127, 0.9041634798049927, 0.1556863933801651, -1.0514801740646362, -0.7598320841789246, 0.1957893818616867, -6.3285322189331055, -1.1778010129928589, -0.8205936551094055, -0.831541121006012, 1.3374272584915161, -1.5961166620254517, 4.443792343139648, -0.6399922966957092, -0.3492469787597656, -0.9175881147384644, -1.8618253469467163, -2.4366414546966553, -2.3460960388183594, 0.7279165983200073, -5.425258159637451, -2.5043962001800537, -0.7673904299736023, -1.0413330793380737, 0.6111718416213989, -1.6733084917068481, 2.108110189437866, -2.3084652423858643, 4.187398910522461, -1.1757631301879883, -2.086620807647705, 3.7482144832611084, 6.295494556427002, 0.7492290735244751, -1.7702244520187378, -2.5581881999969482, 3.0557949542999268, -2.765745162963867, -3.957291603088379, 1.2190849781036377, -4.169286251068115, -1.9382777214050293, -3.036665916442871, -2.6609628200531006, -3.5718395709991455, 0.1900571584701538, -0.9470580816268921, -4.696341037750244, 3.4545962810516357, -1.305619716644287, -1.0212981700897217, -3.3686344623565674, 0.07921689748764038, 0.3774084448814392, 0.08810989558696747, 1.0563292503356934, -3.079423666000366, 4.961733341217041, 1.996163249015808, -0.25722458958625793, 2.706822156906128, -5.239046096801758, 2.709958553314209, -0.33837375044822693, -0.7413519024848938, 2.186720609664917, 0.26165544986724854, 1.1800276041030884, -4.796085357666016, 5.090817451477051, 4.640144348144531, -1.139986515045166, -2.9262545108795166, 0.5207841396331787, 0.18759043514728546, 2.8425283432006836, -1.5265460014343262, 0.05458694323897362, 1.1312905550003052, -9.790224075317383, 6.794854640960693, -0.859642505645752, -1.3863757848739624, 4.158722400665283, -1.9710248708724976, 1.6755504608154297, -6.359992027282715, -0.5787778496742249, -2.562920570373535, 0.37656736373901367, 6.460842609405518, -2.619137763977051, -0.01426437683403492, 2.125560998916626, 2.444357395172119, 1.4127427339553833, -4.323861598968506, 2.2472424507141113, -0.5326442122459412, -3.8446788787841797, 2.2851297855377197, 1.6212080717086792, 0.4219752550125122, -0.22433480620384216, 2.119708776473999, 3.0778913497924805, 1.617748737335205, -4.728138446807861, -0.01426437683403492, 0.14837351441383362, -1.5924181938171387, 2.350886583328247, -0.663289487361908, -12.899473190307617, 2.653852701187134, 2.783668041229248, -2.8534231185913086, 2.3148534297943115, -2.695476531982422, 2.600698471069336, -2.391749620437622, -12.205570220947266, -0.716244101524353, -4.4538421630859375, -1.4320416450500488, 4.06900691986084, -0.017377860844135284, 1.375651240348816, 0.5716596245765686, -4.86407470703125, 0.8723104596138, -3.6010193824768066, -1.1159297227859497, 2.177966356277466, -1.448033094406128, 0.8505221009254456, 0.21961434185504913, 1.8349251747131348, 2.5692663192749023, -1.3642354011535645, -0.3289893865585327, 0.7208487391471863, -1.1670464277267456, 3.9592082500457764, -4.89547872543335, 4.581057548522949, 1.7498964071273804, -5.745796203613281, 0.8753342628479004, -1.9500892162322998, 4.059381008148193, -2.1445565223693848, -1.6982091665267944, -7.265955924987793, 0.8736278414726257, -2.8700664043426514, 5.438689708709717, 6.873558521270752, -1.8136498928070068, -1.6431869268417358, 8.15493392944336, -2.030752420425415, 4.8327460289001465, 2.7170231342315674, 0.9034245014190674, -0.7066740393638611, -5.7003173828125, 5.175592422485352, 1.8537201881408691, -4.822503089904785, 0.6619976162910461, 1.442011833190918, 1.1697334051132202, -1.0826393365859985, 1.9943290948867798, -1.8308277130126953, -0.46845924854278564, -0.9917547106742859, -1.591683268547058, 2.890211582183838, 1.0634499788284302, -2.1679635047912598, -4.316730499267578, -5.110246181488037, -1.676125168800354, -3.5549166202545166, -1.597840428352356, -3.345729351043701, 0.03310127183794975, -0.3700147569179535, -7.622894287109375, -2.5303077697753906, 1.6156443357467651, 2.1003599166870117, 1.4346305131912231, -1.5637211799621582, -0.1863498091697693, -3.104935884475708, -1.826622724533081, -4.376240253448486, -6.781599521636963, -2.0281426906585693, -5.958337306976318, 1.7928777933120728, 0.9667252898216248, -6.422231197357178, 2.0859267711639404, -1.042267084121704, -10.000320434570312, -5.642099380493164, 0.6669471263885498, 2.7823989391326904, 6.764932632446289, 1.182504653930664, 2.000887870788574, -1.867048978805542, 0.1252651959657669, -0.1525166928768158, 1.8723620176315308, 1.8002188205718994, -2.7867956161499023, -0.12726916372776031, 0.6831905841827393, 1.4850928783416748, -2.5174169540405273, 0.8399436473846436, 0.5349963307380676, 0.7425249218940735, 1.7564948797225952, 3.060936212539673, -1.7614905834197998, 0.7163912057876587, -1.1958332061767578, 1.1446352005004883, 0.41266930103302, -3.571500539779663, 2.538228988647461, 4.567243576049805, 0.44264140725135803, -1.1425566673278809, -1.7209380865097046, -1.0927947759628296, 0.5939092636108398, -4.443291187286377, 1.87570059299469, -1.3813832998275757, 3.817688226699829, -1.5877821445465088, -0.13221126794815063, -1.2292598485946655, 3.1860482692718506, -5.73480749130249, 1.8017269372940063, 1.5435822010040283, 4.345378398895264, 1.1009464263916016, 1.1353615522384644, -1.654202938079834, -5.245502471923828, -2.8844308853149414, 1.1355700492858887, -1.806038498878479, 0.522916316986084, 0.3556285798549652, -0.9567833542823792, 0.7008867263793945, 0.19245609641075134, 0.4572913944721222, 0.7172406315803528, -2.83769154548645, -5.396291255950928, 1.3781670331954956, -3.9143118858337402, -0.4690999686717987, -3.7771267890930176, 0.3535356819629669, 1.0825297832489014, 0.6370849013328552, -0.8538020253181458, -2.47977352142334, 2.0624337196350098, -1.551166296005249, -1.5645678043365479, 2.5631394386291504, 5.239689350128174, 0.7801870107650757, -0.3692958950996399, -2.269519567489624, 4.2955827713012695, -3.0799648761749268, -3.429269790649414, -2.1783952713012695, -4.532678127288818, -1.9847047328948975, -1.4030128717422485, -3.914393186569214, -4.533758163452148, 2.582988739013672, 0.1958504617214203, -0.5290278792381287, -1.406383991241455, -4.318027019500732, -0.35101422667503357, -3.4909353256225586, 1.1371785402297974, 0.971904993057251, -1.1566154956817627, 1.4336795806884766, -4.04152250289917, 13.499649047851562, 1.9256948232650757, -2.707408905029297, 4.261272430419922, -5.415679931640625, 2.3540432453155518, 1.389359712600708, 0.6760930418968201, -0.7211283445358276, 0.6772820353507996, 0.15180332958698273, -10.024211883544922, 8.576713562011719, 3.0271828174591064, 2.0736143589019775, -0.017355628311634064, 1.0390053987503052, -0.29530757665634155, 3.4333138465881348, 1.9427525997161865, 0.0, -1.1597341299057007, -8.819075584411621, 6.640083312988281, -0.5678707361221313, -0.7909625768661499, 0.126459002494812, 0.2028270959854126, 1.9930323362350464, 2.821467399597168, 2.930338144302368, -0.12202927470207214, -1.8938584327697754, 6.99099588394165, -2.420898914337158, 0.4818587303161621, 2.146436929702759, 0.8752872943878174, -0.5060102343559265, -4.476032257080078, -0.6015565991401672, -0.4114554822444916, 3.5684010982513428, 0.2867806851863861, 2.8734076023101807, -0.815740704536438, 0.04311126470565796, 2.2528772354125977, 4.067512035369873, 1.9848785400390625, -0.5909311771392822, 0.4818587303161621, -0.9972059726715088, -0.039360783994197845, -1.1315181255340576, 2.5156660079956055, 1.1116029024124146, -2.423654556274414, 0.8881224393844604, -1.43390691280365, 4.582792282104492, -4.860601425170898, 3.6238718032836914, 0.05692875757813454, -5.089695930480957, 2.434583902359009, 0.09755700081586838, -0.02204902283847332, 2.7454898357391357, -0.37464264035224915, 2.28572940826416, -2.1218180656433105, -3.1310412883758545, -2.1650397777557373, -1.3462976217269897, 6.951701641082764, 2.397439479827881, -0.12525999546051025, 3.5060946941375732, -0.9724628925323486, 0.9294595718383789, 3.1694037914276123, -0.793770432472229, -4.2334771156311035, 3.2562108039855957, -0.18246644735336304, 4.892710208892822, -2.9297444820404053, 2.3116562366485596, 2.004481792449951, -2.4867305755615234, 1.2068867683410645, -2.420429229736328, -0.03656461089849472, -3.540658712387085, -1.1310091018676758, -7.490490436553955, 0.31146273016929626, -1.880965232849121, 6.17820930480957, 7.651252746582031, -0.3338901996612549, -2.403059959411621, 5.4340739250183105, -0.9535302519798279, 9.124490737915039, 1.3937946557998657, 4.472713470458984, 0.16188526153564453, -6.500499725341797, 6.489274024963379, -0.5495141744613647, -2.881134033203125, 2.1751761436462402, 3.5971486568450928, 0.5890226364135742, 2.431631326675415, 1.9158395528793335, 0.5626711249351501, -2.2393181324005127, 0.946087658405304, -0.7303962111473083, 3.291118621826172, -0.16135649383068085, 10.612528800964355, -0.7841637134552002, -3.5551846027374268, 2.582507610321045, -0.7408196926116943, -0.43901965022087097, -5.321866512298584, -4.1358771324157715, -0.08479969203472137, -8.36894416809082, 1.6356918811798096, 3.574105739593506, 4.720654010772705, -1.1205655336380005, -1.6049412488937378, 1.7788408994674683, -0.5283553600311279, 0.5057282447814941, -3.5994184017181396, -7.371916770935059, -2.9983460903167725, -6.60994291305542, 6.018003463745117, -0.6996510028839111, -0.7781210541725159, 0.7366758584976196, 0.758665919303894, -11.46242904663086, -4.443022727966309, 1.742638111114502, 4.8785905838012695, 6.0984721183776855, -0.2913988530635834, 1.1396573781967163, -1.0707638263702393, 0.9113574028015137, 2.156219482421875, 2.3858225345611572, 3.7231736183166504, -4.927505016326904, -1.0546579360961914, -2.276944398880005, 1.009255290031433, -1.6322587728500366, 1.255589485168457, 2.2882275581359863, 7.884531021118164, 4.8248467445373535, 2.4412903785705566, -0.7114092111587524, 0.5635032653808594, -0.49093368649482727, 4.260673999786377, 1.416123390197754, -1.712006688117981, 3.482334852218628, 3.6234169006347656, 2.022651433944702, -0.953987717628479, -1.8984121084213257, 1.1047767400741577, 0.07253259420394897, -5.61043119430542, 2.42655086517334, -5.136150360107422, 7.449625015258789, -0.38174667954444885, -4.591825008392334, 1.1996904611587524, 3.7537999153137207, -5.161279201507568, 2.4087932109832764, 1.6254802942276, 2.084935426712036, 2.2288362979888916, -2.296325206756592, -2.181177854537964, -5.864743709564209, -2.231656312942505, 2.04337739944458, -4.427726745605469, 0.8840346932411194, 1.874578833580017, -2.8192460536956787, 1.4218285083770752, 0.6679074764251709, -4.378390789031982, 2.1935372352600098, -2.0122833251953125, -5.209920406341553, 0.3603838384151459, -3.944847822189331, 1.6719003915786743, -3.926807403564453, 0.27574408054351807, 2.9429736137390137, -3.7386586666107178, 1.9779067039489746, -3.4303717613220215, 3.700770854949951, -0.07167913764715195, -1.397924542427063, 3.0364081859588623, 3.9099080562591553, -0.7457992434501648, -0.09527174383401871, 1.4300436973571777, 4.7614922523498535, -1.134088397026062, -2.0783205032348633, -1.6465704441070557, -4.647069454193115, -1.2867058515548706, -1.5157785415649414, -6.266742706298828, -2.506925344467163, 2.599477529525757, 2.8436975479125977, 2.2028207778930664, 2.9368622303009033, -3.1549556255340576, -1.2170886993408203, -4.441340446472168, 0.7212533354759216, 0.30049189925193787, -4.300327777862549, 1.8331336975097656, -4.786739826202393, 3.611564874649048, 2.1840972900390625, -13.390157699584961, 1.4908634424209595, -3.244166374206543, 0.6523857712745667, 5.126039505004883, 0.13247382640838623, -0.572708010673523, 0.4393024444580078, -1.2777060270309448, -3.144387722015381, 1.0162148475646973, 6.095937252044678, 5.619944095611572, -2.7244670391082764, 1.224347710609436, -0.3102254271507263, 2.0731868743896484, 4.209638595581055, 0.0, -1.5500752925872803, -9.088531494140625, 3.3764328956604004, -2.8506534099578857, 0.4553917944431305, 0.8450072407722473, 2.20135760307312, 1.4865317344665527, -2.1965222358703613, 3.481771230697632, -0.9754903316497803, 1.2981699705123901, 4.622390270233154, -2.82611346244812, 0.20792371034622192, -0.18679192662239075, 0.7659279704093933, -1.3144810199737549, -0.7372260689735413, 2.1533186435699463, -1.0574568510055542, -2.162564754486084, 1.3361001014709473, 1.2972880601882935, 3.985581874847412, 0.48250100016593933, 1.7465722560882568, 4.472076892852783, -1.0213253498077393, 3.928353786468506, 0.20792371034622192, -1.7721930742263794, 1.2273598909378052, 1.2237001657485962, -1.610823154449463, 3.387526273727417, -0.01397248450666666, 2.563126564025879, -0.306747704744339, -0.43816444277763367, -4.583213806152344, 0.8544199466705322, -0.6080982089042664, -5.415542125701904, -1.8513038158416748, 3.4303226470947266, -0.2642670273780823, 2.5872249603271484, -0.46593809127807617, 3.0198538303375244, -0.18576663732528687, -3.9711196422576904, 1.1745415925979614, 2.7072081565856934, 2.88366436958313, 2.437262773513794, -0.7757806181907654, 4.720511436462402, 1.428389549255371, -2.1525983810424805, 4.345512390136719, -1.5820835828781128, -4.651327610015869, 3.4515089988708496, 0.36493685841560364, 2.348205804824829, -4.693893909454346, 2.6106374263763428, 3.456780433654785, -1.4084264039993286, -0.9586882591247559, -3.675964117050171, 6.750743865966797, -4.578134536743164, -0.4037066400051117, -8.04662036895752, 1.298827052116394, -0.6848925352096558, 5.315580368041992, 8.36075210571289, -2.802321672439575, -4.308330535888672, 2.1054935455322266, 1.0077528953552246, 6.197147369384766, 0.6263282299041748, 1.6559158563613892, 0.691766619682312, -3.717519521713257, 6.136511325836182, -0.2820877134799957, 1.1208182573318481, 0.9033069610595703, 2.5746400356292725, 0.24819131195545197, -1.075415849685669, 2.4381051063537598, -1.5580745935440063, -1.1658262014389038, 0.12128771096467972, -3.5978972911834717, 3.1286885738372803, -1.6435911655426025, 7.686831474304199, -1.670323133468628, -0.6364542841911316, 0.7820775508880615, -1.47267484664917, 0.513729453086853, -3.612793207168579, -1.318726897239685, -0.577436625957489, -8.543163299560547, -0.7435585856437683, 2.6394784450531006, 5.404773712158203, -1.0111147165298462, -3.1391589641571045, 1.739115595817566, 0.6318148970603943, 1.9060823917388916, -2.9902467727661133, -7.188117504119873, -5.660983562469482, -5.899495601654053, 6.879114627838135, 0.5016133189201355, 0.41322627663612366, 1.153354287147522, 1.324411392211914, 4.712924957275391, -4.434525489807129, 2.404442548751831, 3.590756893157959, 6.417938709259033, 0.1580643355846405, -0.349869042634964, 1.0875492095947266, 0.4765859842300415, 0.7429984211921692, 1.712807059288025, 1.4866681098937988, -1.7954093217849731, 0.6176919341087341, -0.2720925211906433, 1.4255200624465942, -0.31817689538002014, 1.2282075881958008, 2.0509252548217773, 7.795200824737549, 3.8451926708221436, 2.6931211948394775, -1.7936553955078125, 1.1258431673049927, -0.07234065234661102, 0.6975690126419067, 1.278186321258545, -2.523404598236084, 4.115298748016357, 5.910675048828125, 5.3339457511901855, -0.2955520451068878, -1.9996614456176758, 2.7179958820343018, 1.6160025596618652, -4.384413719177246, 2.389007329940796, 7.016395092010498, 5.3465495109558105, -0.1269119381904602, -4.711636543273926, 0.8167356848716736, 4.683042526245117, -3.445467233657837, 1.9607551097869873, 2.191988706588745, 3.5936386585235596, 0.49689170718193054, 0.1457664519548416, -1.636325716972351, -3.4944586753845215, -0.7303887605667114, 1.3478050231933594, -3.9072647094726562, 0.4354127049446106, 3.47080397605896, 3.521230697631836, 1.8584814071655273, 1.3102796077728271, -6.240424633026123, 0.48338383436203003, -0.08335504680871964, -5.979952335357666, 1.7294800281524658, -3.7361271381378174, 1.6471953392028809, -3.8939833641052246, 0.5712763667106628, 3.026954412460327, -1.049022912979126, 1.2923723459243774, -3.5682616233825684, 4.939639091491699, -0.0028860694728791714, -1.1048556566238403, 2.280769109725952, 9.008186340332031, -0.49727436900138855, 0.24041153490543365, -2.9868829250335693, -1.307753562927246, -1.6310644149780273, -4.028931617736816, 0.45361292362213135, -4.417141437530518, 3.1444618701934814, -0.9409292340278625, -5.237278938293457, -0.9690655469894409, 1.6759047508239746, 3.7169690132141113, 1.9577312469482422, 2.1301729679107666, 1.5256155729293823, 0.5159569382667542, -0.9783685803413391, 1.5729873180389404, -6.427065372467041, -3.572883367538452, 2.3604822158813477, -5.0387067794799805, 2.2328763008117676, 3.6779894828796387, -5.342247486114502, 3.447446584701538, -4.332752227783203, 1.3701591491699219, 4.793651103973389, -0.3649982213973999, -2.0295298099517822, -0.5253258347511292, 0.1732545793056488, -6.534442901611328, 0.28012579679489136, 3.099346876144409, 4.91638708114624, -1.169263243675232, -0.275370329618454, 1.8380593061447144, 2.0334393978118896, 4.179686546325684, -0.0751274824142456, 1.1287935972213745, -10.189973831176758, -6.949726581573486, -3.363029956817627, 0.808853805065155, -3.323974370956421, 0.7565916180610657, 2.450101613998413, -0.45613572001457214, 0.32214444875717163, 1.1360077857971191, 1.9342987537384033, 3.4424057006835938, -0.972141683101654, -0.7504357695579529, 1.7101974487304688, 3.6595630645751953, -2.351924419403076, -1.564734697341919, 0.21587523818016052, -0.25820356607437134, -0.03736908361315727, -0.04424286633729935, 1.3183006048202515, 1.9582738876342773, -0.3486067056655884, 4.405357360839844, 4.197282314300537, 1.3548003435134888, 3.414280891418457, -0.7504357695579529, 0.8560978174209595, 3.660024881362915, -1.6820704936981201, 1.2824547290802002, -15.315550804138184, 3.3923590183258057, 2.378044843673706, 0.377411425113678, 2.2148008346557617, -5.043078899383545, 2.5087780952453613, -1.502431035041809, -5.508040904998779, 0.2743435800075531, 4.213582515716553, -0.9009813666343689, 3.8796098232269287, 1.7459393739700317, 4.734103202819824, -0.8393406271934509, -3.161057710647583, -2.560697317123413, 1.7741683721542358, -5.201970100402832, 4.243094444274902, 0.3749963343143463, 4.597930431365967, -0.5196930766105652, -2.546130895614624, 3.7006704807281494, -0.6256303787231445, -4.129140853881836, 4.220844745635986, -1.6320061683654785, 1.9954710006713867, -4.8536295890808105, 3.6403608322143555, 0.6098476648330688, -2.163907289505005, -0.7678694725036621, -4.6907196044921875, 2.5817415714263916, -4.842862606048584, -1.710182785987854, -8.805896759033203, 1.1795438528060913, -1.395782709121704, 2.5539283752441406, 11.099501609802246, -0.6053183674812317, -3.2330148220062256, 1.3814713954925537, -2.79150390625, 8.046575546264648, 1.4048566818237305, -2.306644916534424, 0.10571831464767456, -2.0431437492370605, 4.308658599853516, 0.22772528231143951, -1.708607792854309, -0.7357035279273987, 2.5253772735595703, 0.7006771564483643, 0.3909907042980194, 1.9205584526062012, 0.3416343927383423, -1.418548583984375, -2.390733480453491, -2.2281737327575684, 5.904673099517822, -0.08371298015117645, 5.051433086395264, -4.504023551940918, -3.0156612396240234, 1.2306249141693115, -7.694344520568848, 1.9257291555404663, -3.5264415740966797, -0.8287783861160278, -1.143783688545227, -6.25760555267334, 0.43921422958374023, 2.387883186340332, -4.031613349914551, -1.692834734916687, -1.3603774309158325, 1.8920624256134033, 0.0, -2.4076476097106934, -3.3777551651000977, -6.295477390289307, -3.4858858585357666, -8.121224403381348, 1.8006309270858765, -1.0115500688552856, 0.08902917802333832, 0.8860238194465637, 1.9006624221801758, 5.33977746963501, -4.2809224128723145, 3.4924817085266113, -1.0620722770690918, 6.9863667488098145, 6.331548690795898, 1.5066415071487427, 1.3435139656066895, 1.3920161724090576, 0.6935079097747803, 3.04241681098938, -4.516373157501221, -1.6221160888671875, 6.725975513458252, -0.40455421805381775, 1.1986137628555298, -1.918378233909607, -0.002077665412798524, 3.2157347202301025, -1.8598088026046753, 3.3869502544403076, 2.1845831871032715, -0.6908017992973328, -0.14582203328609467, 0.5524794459342957, 1.7668278217315674, 0.38548797369003296, -1.1610922813415527, 4.312699794769287, 5.3977179527282715, 4.529336929321289, 0.3275200128555298, -1.7309705018997192, 0.8434897661209106, 1.3015013933181763, -4.194562911987305, 2.431441068649292, 0.7715651392936707, 3.890383243560791, 0.4774198532104492, -3.2752323150634766, -0.6705463528633118, 2.9894657135009766, -5.912726879119873, 1.1913365125656128, 2.356200695037842, 2.1831865310668945, 0.25632983446121216, -0.6233012080192566, -3.150937080383301, -7.318084716796875, -1.747104525566101, 1.7387596368789673, -2.8028404712677, 4.213896751403809, 1.0271894931793213, 3.3711488246917725, 0.5605448484420776, -2.760322332382202, -10.015246391296387, 3.078097343444824, -0.8276478052139282, -4.539985656738281, 1.0720521211624146, -4.7521820068359375, -0.024350915104150772, -3.8934292793273926, 0.1390104740858078, 3.0132076740264893, -2.171782970428467, 2.881441354751587, -3.2734298706054688, 5.0050787925720215, -0.34242433309555054, -1.321232557296753, 2.324812650680542, 9.883444786071777, -1.2419686317443848, 0.6670865416526794, -2.375225067138672, 0.3963926434516907, -1.8744007349014282, -3.9129462242126465, 0.34092339873313904, -7.538558006286621, 0.5342512130737305, -0.06667372584342957, -5.180361270904541, -1.2621911764144897, 0.15312565863132477, 2.841201066970825, -0.16810254752635956, 1.7518080472946167, -3.8894073963165283, 0.4676854610443115, -1.2386958599090576, 1.385636806488037, -5.326687812805176, -7.180127143859863, 0.7197398543357849, -5.149759292602539, 7.160303592681885, 3.3551881313323975, 2.1689305305480957, 2.8992934226989746, -5.802801132202148, 1.5551730394363403, 2.4014251232147217, 0.07050766050815582, -0.29085713624954224, 1.2934201955795288, -1.4850349426269531, 0.727685809135437, 0.09610475599765778, 3.0359580516815186, 4.410916805267334, 0.5028768181800842, -1.7725110054016113, -0.7791048884391785, -0.04462645202875137, 3.640714645385742, 1.1032124757766724, 2.2441341876983643, -10.581380844116211, 3.012237071990967, -4.784807205200195, -0.2698681950569153, 6.008366107940674, -0.9461649656295776, 3.181546449661255, -1.8384963274002075, 0.7924479842185974, 2.4206271171569824, 2.261500358581543, 5.074068069458008, -1.343371868133545, 1.1236445903778076, -0.31893637776374817, 0.9369389414787292, -1.9513474702835083, 0.8506223559379578, 4.197597503662109, -0.035404227674007416, -2.9802467823028564, -0.49475663900375366, -0.6310171484947205, 0.31531664729118347, 0.8697795271873474, 5.616134166717529, 4.319981098175049, -0.8966403603553772, 2.3400919437408447, 1.1236445903778076, 1.8974512815475464, -0.6469913125038147, 4.333745956420898, 0.0005439122905954719, -11.457119941711426, 1.2438886165618896, 1.2388273477554321, -0.7370041012763977, 1.7065709829330444, -5.159490585327148, 0.8039713501930237, -0.3068336546421051, -8.946925163269043, 0.16865022480487823, 1.233201265335083, 0.9165287613868713, 3.3888678550720215, -0.8408865332603455, 2.0545008182525635, 0.7156583666801453, -4.910959720611572, -2.966033935546875, 2.3428006172180176, -6.27106237411499, 2.9034273624420166, 0.5771124362945557, 4.269657135009766, -1.9963654279708862, 0.25207260251045227, 1.5765374898910522, 3.515015125274658, -5.321228504180908, 3.497748851776123, 0.6282439231872559, 1.5365731716156006, -3.0994958877563477, 3.765340805053711, 1.4586809873580933, -0.9299173355102539, 2.188859701156616, 9.340690612792969, 0.5739856362342834, -4.237411975860596, -0.4025137424468994, -7.574428081512451, 1.2695231437683105, -1.3089650869369507, 5.612163066864014, 7.27970552444458, 0.5641325116157532, -1.9909446239471436, 2.6450982093811035, -4.466300964355469, 4.907539367675781, 0.4589686393737793, 0.7395981550216675, -1.0062861442565918, -1.1642638444900513, 5.154146671295166, 0.30373966693878174, -3.1334595680236816, 3.8106167316436768, 1.7870547771453857, -0.7298427820205688, -2.4459500312805176, 2.5029845237731934, 1.8543450832366943, -1.2566219568252563, -0.5996987223625183, -1.401674509048462, 2.528336524963379, 1.8527663946151733, -1.385644793510437, -3.300605058670044, -2.406261682510376, -0.7404261231422424, -4.756233215332031, 0.6747450828552246, -6.055486679077148, -0.6305790543556213, -0.012054256163537502, -8.693768501281738, 0.25280237197875977, -0.8480232954025269, 0.043788809329271317, -0.5460740327835083, -0.7596625685691833, 1.6118024587631226, 0.0, -1.9637032747268677, -4.3975372314453125, -6.749325275421143, -3.796381950378418, -8.358333587646484, 5.161007881164551, -0.07592181861400604, -6.039785385131836, 0.20516112446784973, 2.326716899871826, 3.949751615524292, -4.718533992767334, 2.1464014053344727, 1.8922063112258911, 8.408170700073242, 1.0816524028778076, 1.6108851432800293, 1.5053297281265259, 0.6723473072052002, 1.039285659790039, 0.39145687222480774, 0.013214449398219585, 1.8547289371490479, -0.06447689235210419, 0.47291433811187744, 0.8034138083457947, -3.347961187362671, -1.511893630027771, 2.8371481895446777, 1.6018662452697754, 2.4930012226104736, 0.49065160751342773, -2.3914289474487305, -0.587454080581665, 0.36515599489212036, 3.160414695739746, 0.14576761424541473, -0.11815232783555984, 4.913295269012451, 3.2579503059387207, 4.123629093170166, 0.6146689653396606, -1.1537373065948486, -2.2527616024017334, 0.8304008841514587, -4.522920608520508, 2.5928921699523926, -3.7340829372406006, 5.882596492767334, 0.6245906352996826, -2.7772176265716553, -2.537893295288086, 2.6335346698760986, -3.920978307723999, 1.6517091989517212, 2.873460292816162, 3.8348958492279053, 0.18004097044467926, 0.3256415128707886, -2.7640697956085205, -6.054360389709473, -0.9036555290222168, 0.2820347547531128, -3.0635695457458496, 2.2370924949645996, -0.6766899228096008, 2.483583688735962, 1.2181819677352905, 1.2957005500793457, -4.607465744018555, 0.138543963432312, -0.8473448753356934, -5.675563335418701, 1.1871854066848755, -5.082656383514404, 0.18237709999084473, -2.780733108520508, 2.7174322605133057, 2.637453317642212, -0.6139957308769226, 2.0477688312530518, -2.2635374069213867, 2.4740238189697266, 0.20358914136886597, -0.5873674154281616, 4.160207271575928, 8.75141429901123, -0.8002834320068359, -0.6621670722961426, -0.6725812554359436, -2.3305208683013916, -0.4418303668498993, -1.12021803855896, -0.01631304994225502, -2.2741174697875977, 0.4665603041648865, 0.16881383955478668, -5.000663757324219, -2.761483907699585, 0.788543164730072, 2.5897374153137207, -2.7185933589935303, 3.50154447555542, -1.5736030340194702, 1.4773706197738647, -0.735757052898407, 1.101669192314148, 2.660712957382202, -6.272781848907471, 0.6647167205810547, -3.94926381111145, 3.0710442066192627, 1.8028138875961304, -0.3443860709667206, -0.5627534985542297, -3.112502098083496, 0.21525248885154724, -0.17336176335811615, -0.279040664434433, -1.971599817276001, 2.1290645599365234, 1.8957661390304565, -3.635106325149536, 8.052146911621094, 4.219076156616211, 3.514692783355713, -0.5806934237480164, -1.146898865699768, -2.1607120037078857, 0.9047051668167114, 3.3008787631988525, 2.109349250793457, 1.7410387992858887, -6.458466529846191, 1.7251802682876587, -2.51875901222229, 0.3257336914539337, 5.033005714416504, 0.28221192955970764, 3.2842373847961426, 9.332605361938477, 2.5969979763031006, 2.042677402496338, 1.6748478412628174, 7.475574970245361, 0.08022008091211319, 1.95420503616333, 1.6776810884475708, -3.8895926475524902, -1.8434048891067505, -0.16196438670158386, 1.282257080078125, -0.3745774030685425, -7.216520309448242, -0.07467668503522873, 0.876333475112915, -1.7675518989562988, 1.862640142440796, -0.43045541644096375, 4.866949558258057, 0.8382042050361633, -0.3604995310306549, 1.95420503616333, 1.343069076538086, -2.5740456581115723, 3.8339529037475586, -1.1113917827606201, -17.066781997680664, -0.5502773523330688, 1.1221331357955933, -0.21392033994197845, 2.479938268661499, -4.254535675048828, 1.8937654495239258, -1.5281955003738403, -1.9764562845230103, 1.373528003692627, -2.380849838256836, 1.7523516416549683, 5.9228925704956055, -2.257110595703125, 4.303686141967773, -0.9134514331817627, -4.362320423126221, -3.370643138885498, 1.8475743532180786, -6.122755527496338, 3.1078484058380127, 0.3044341206550598, 1.9914077520370483, -1.5486788749694824, -0.6388624906539917, 3.839916944503784, 1.107487440109253, -5.98718786239624, 2.840176582336426, 2.2076416015625, 3.4285407066345215, -1.4227346181869507, 3.6307108402252197, 1.583011507987976, -2.676300048828125, 2.837160110473633, 5.337314128875732, 6.056815147399902, -4.299793720245361, -1.5074578523635864, -5.097717761993408, -0.33286550641059875, -1.5943944454193115, 6.94924783706665, 5.761750221252441, -1.862229824066162, -3.283511161804199, 2.6686999797821045, -3.3223719596862793, 5.874520778656006, 0.7323344349861145, 0.03645838052034378, 0.8642075657844543, 0.7130571007728577, 1.1630233526229858, -0.18264475464820862, -3.830296754837036, 4.053281307220459, 1.565934181213379, -0.8884261846542358, -0.5386713147163391, 2.473578453063965, -0.9264165759086609, -0.4692932665348053, 1.6922438144683838, -5.389788627624512, 1.7198923826217651, 0.6656666994094849, 2.9422104358673096, -2.732579469680786, -4.782107830047607, 0.5394372940063477, -6.438146591186523, -1.2184072732925415, -5.266438961029053, -0.11488723009824753, -0.36615678668022156, 9.293790817260742, -3.1133933067321777, -1.4750078916549683, 3.521411895751953, 0.6985411047935486, -0.7125790119171143, 0.3416508436203003, -1.1450875997543335, -0.8935470581054688, -4.062533855438232, -5.581491470336914, -3.4704976081848145, -7.908853530883789, 4.4192094802856445, 0.2054833173751831, -7.688544273376465, -0.12397500872612, 1.2173728942871094, 5.362088203430176, -5.320511341094971, 2.2344553470611572, 3.183400869369507, 6.96024751663208, -0.5862045288085938, 0.7877459526062012, 1.6621228456497192, 0.4458838403224945, 1.2192115783691406, 0.7427558898925781, 1.2880357503890991, -1.5316509008407593, -1.4189754724502563, 2.697343349456787, 0.4537190794944763, -3.203845500946045, -2.3654327392578125, 1.6083508729934692, 2.3213181495666504, 2.9917969703674316, 1.1003806591033936, -5.617613792419434, 0.6167557835578918, -1.7438969612121582, 1.462867259979248, 0.31862080097198486, -0.9531904458999634, 6.7830424308776855, 3.4600772857666016, 4.064092636108398, -1.4894533157348633, -3.170203447341919, -1.4648420810699463, -0.7586379647254944, -4.703256130218506, 2.0642473697662354, -2.0556528568267822, 4.458426475524902, -2.402386426925659, -3.5157577991485596, -2.553528070449829, 2.516153573989868, -4.893221855163574, 1.2152061462402344, 1.5559250116348267, 2.8870444297790527, -0.04677433893084526, -0.1953791230916977, -4.003416061401367, -6.265656471252441, -2.7712130546569824, 0.3667801320552826, -3.059406280517578, 1.5803475379943848, -1.169006586074829, -3.2911252975463867, 1.4376602172851562, 1.400913119316101, -3.916447877883911, 1.6785855293273926, -0.8401035070419312, -6.147493839263916, 2.0104048252105713, -3.1136066913604736, -0.8340586423873901, -4.566977024078369, 2.0447986125946045, 1.2496756315231323, -0.050568386912345886, 1.2818711996078491, -3.1889967918395996, 1.6657012701034546, -1.4114577770233154, -2.462989568710327, 1.8068490028381348, 5.024585723876953, -0.6903911828994751, -0.6890841722488403, 1.0529232025146484, 3.450575113296509, -3.932450532913208, -4.862800121307373, -0.6776991486549377, -4.641904354095459, 1.6640130281448364, -2.1173298358917236, -6.006722927093506, -3.0254476070404053, 1.303846836090088, 2.625547409057617, -1.3803679943084717, 3.061995267868042, -2.9639759063720703, -0.6780092120170593, -0.9322710037231445, 1.6215020418167114, 0.49852415919303894, -8.250354766845703, 0.8094208240509033, -5.609048366546631, 5.54619026184082, 1.328033447265625, -1.444390058517456, 1.9886547327041626, -4.651647090911865, 0.6087467074394226, 1.3288767337799072, 0.4013863503932953, -0.7598864436149597, 1.0917500257492065, -0.6024125814437866, 0.09973379969596863, 6.790075778961182, 0.10118049383163452, 1.8646485805511475, 1.2363710403442383, -2.5657973289489746, -1.3812391757965088, 1.7247744798660278, 2.4113259315490723, 0.021124649792909622, 0.5831204056739807, -9.807941436767578, 3.814992666244507, -2.6785783767700195, -2.9908668994903564, 6.302562236785889, 2.8605141639709473, 2.8308615684509277, 6.745513916015625, 2.21567702293396, 2.577808141708374, 1.0500179529190063, 4.024629592895508, -3.6172091960906982, 0.9718107581138611, 1.0698494911193848, -4.037365913391113, -2.6181323528289795, -3.017453908920288, 1.196851372718811, -0.4148176610469818, -3.601823568344116, 0.1757238209247589, 1.3588072061538696, -2.2211685180664062, -0.14211256802082062, -0.6647778153419495, 4.5554022789001465, 0.5201364755630493, -2.005186080932617, 0.9718107581138611, 1.0292069911956787, -2.279724359512329, 2.154693841934204, 1.995206356048584, -17.858970642089844, -0.4100262224674225, -2.11834716796875, -4.004268646240234, 3.43819260597229, -4.715005397796631, 1.7588438987731934, -0.9953228235244751, -4.797989368438721, 0.15146662294864655, 0.24957185983657837, 0.3592350482940674, -3.136693000793457, -1.3945016860961914, 1.642340064048767, -2.8042514324188232, -4.881062030792236, -4.714433670043945, -0.896733283996582, -1.0495113134384155, 1.7625869512557983, -0.3378477692604065, 2.836458444595337, -1.8516682386398315, 0.8925227522850037, 3.875640869140625, -1.5953837633132935, -4.670202732086182, 3.1061575412750244, 0.3424418568611145, 3.2053639888763428, -3.2758243083953857, 1.9962358474731445, 1.74642014503479, 0.3592716455459595, 2.3049705028533936, 7.275115966796875, -1.4214298725128174, -6.399503231048584, -0.853036642074585, -5.173700332641602, 0.4772410988807678, -0.07735928893089294, 5.740492820739746, 10.525078773498535, 0.9390479922294617, -2.511655330657959, 5.59166955947876, -2.011005163192749, -1.5130809545516968, 1.598196029663086, 2.785660982131958, 1.3503185510635376, 1.4895983934402466, 5.902012348175049, -0.679655909538269, -5.137439727783203, 2.7703559398651123, 1.586016058921814, -2.218282461166382, 2.8893587589263916, 3.5290637016296387, -0.24652431905269623, 1.2787590026855469, 1.839727520942688, 0.7276440262794495, 2.890737771987915, 0.7463963627815247, -4.311142921447754, -0.4253641366958618, -2.7986159324645996, 2.6706619262695312, -2.679915428161621, 0.7015117406845093, -7.493799686431885, -3.1043903827667236, -0.0035100688692182302, 9.685161590576172, -1.5329227447509766, 0.8344141840934753, 3.4016942977905273, -2.1832568645477295, 0.08317859470844269, 1.4343293905258179, -0.2744239270687103, -0.16153357923030853, -2.1302831172943115, -5.245988845825195, -6.030011177062988, -9.489510536193848, 6.89702033996582, -0.15701213479042053, 0.26467472314834595, -1.934342861175537, 2.6179134845733643, 2.231811046600342, -4.063581943511963, 2.497593879699707, 5.696209907531738, 6.980018138885498, -0.6744924783706665, 0.709442675113678, 1.937787652015686, 1.333268404006958, 3.1730289459228516, 0.4639449119567871, 4.769129753112793, -2.610583543777466, -1.3805391788482666, -3.3950865268707275, 2.2128069400787354, -2.9921562671661377, 0.009639897383749485, 0.613664448261261, 3.5534281730651855, 3.2405548095703125, 0.7681214213371277, -5.012300968170166, -1.336940050125122, -1.5059560537338257, -0.9954776763916016, 0.08907006680965424, -1.6449906826019287, 6.965906620025635, 2.6082191467285156, 4.925874710083008, -0.6331453323364258, -2.655787467956543, -0.19860409200191498, -0.6813240647315979, -4.474950313568115, 1.9425543546676636, 7.350200653076172, 4.268208980560303, 0.16560547053813934, -5.668062210083008, 3.1507551670074463, 4.4750142097473145, -1.8568850755691528, 1.9617141485214233, 2.755481719970703, 2.7422921657562256, 0.7274633049964905, -2.3870232105255127, -2.651122808456421, -5.430671691894531, -2.8780710697174072, 1.065112829208374, -4.118269443511963, 1.4385337829589844, -0.4431978762149811, -4.069096565246582, 1.2757041454315186, 1.8537429571151733, -4.0669121742248535, -0.9365619421005249, -1.2147769927978516, -6.758021354675293, 2.485179901123047, -6.0096564292907715, 1.2897381782531738, -3.689351797103882, 1.849481225013733, 4.295897960662842, -0.8897464871406555, 3.404863119125366, -3.125720262527466, 2.1922659873962402, 0.05354709550738335, -1.6233432292938232, 3.4050025939941406, 4.313251495361328, -1.247073769569397, -0.046830736100673676, -1.5628626346588135, 1.8829139471054077, -0.2618977427482605, -1.0252571105957031, -1.2537686824798584, 0.7491084337234497, 0.13775306940078735, -1.0154329538345337, -5.613010406494141, -2.503690004348755, 0.6363385915756226, 0.4118642508983612, 2.4824228286743164, 4.465006351470947, 1.8567715883255005, 0.03785592317581177, -2.3958184719085693, 1.373227834701538, 0.925281822681427, -5.562967777252197, 0.4072085916996002, -4.737525939941406, 7.178637504577637, 1.818544864654541, -2.4443490505218506, 1.1707535982131958, -2.7645719051361084, 0.6907440423965454, 5.830737113952637, 0.7585152983665466, -0.43413662910461426, 1.7117165327072144, -2.124298572540283, -3.125641107559204, 4.691596508026123, 0.44354793429374695, 7.176248550415039, 1.2330985069274902, -1.4642354249954224, -2.1807405948638916, 0.31626492738723755, 4.277005195617676, 1.2410238981246948, 0.5344522595405579, -9.020392417907715, -0.14063143730163574, -2.7543630599975586, -1.386169672012329, 10.106954574584961, 1.1702135801315308, 3.0694949626922607, 3.9373860359191895, 2.0317790508270264, 1.4736758470535278, 1.605254054069519, 4.906795501708984, -1.3142744302749634, 1.5491007566452026, -0.6731429100036621, -5.119761943817139, -2.369239568710327, 1.5808063745498657, 0.9057689905166626, -0.5985422730445862, -5.271294116973877, 0.7050731182098389, 1.0512739419937134, 0.7726388573646545, 1.0570520162582397, -6.42863130569458, 4.156363010406494, -0.07719668745994568, 4.077295780181885, 1.5491007566452026, 2.946087598800659, -1.0311200618743896, -0.15619705617427826, 0.8834977149963379, -14.354775428771973, -0.01615595445036888, 1.4926379919052124, -2.3822386264801025, -0.04193573817610741, -3.392768383026123, 1.892417073249817, -0.6464070677757263, -5.922979354858398, -0.29293662309646606, -0.3707424998283386, 0.9793236255645752, 2.6404237747192383, -2.2683889865875244, 2.537078619003296, 0.22175179421901703, -3.888693332672119, -7.212828159332275, 3.4722957611083984, 1.3712395429611206, 3.853834629058838, -0.5192714929580688, 3.291837692260742, -0.7442764639854431, -2.96466064453125, 3.6267480850219727, -1.1848785877227783, -6.858243942260742, 3.325762987136841, 1.6421128511428833, 1.3664422035217285, -3.17504620552063, 3.6486847400665283, 3.5381147861480713, -0.5280357599258423, 0.41445523500442505, 7.90333366394043, 1.3317461013793945, -8.129409790039062, -0.36065155267715454, -3.205867052078247, 0.10954701900482178, 1.6318039894104004, 4.812472343444824, 7.99243688583374, -2.055608034133911, -4.555591583251953, 5.46456241607666, -0.5192426443099976, -6.2420220375061035, 0.09029976278543472, 0.5375449061393738, 1.3710306882858276, 2.7921550273895264, 6.2894158363342285, -0.669647753238678, 0.3595615327358246, 4.663348197937012, 1.56132972240448, -2.3120720386505127, 0.47949203848838806, 4.870761394500732, -2.279932975769043, -1.275220513343811, 0.837996780872345, 1.2585450410842896, 2.235924482345581, -1.6399970054626465, 4.727696895599365, -2.114593982696533, -3.0140113830566406, 1.2126175165176392, -3.3206303119659424, 0.566057026386261, -7.253739833831787, -3.0489284992218018, -0.7422215938568115, -8.578646659851074, -1.0884597301483154, 1.804473638534546, 5.537799835205078, -2.4457645416259766, -2.2419114112854004, 2.9706201553344727, 1.252741813659668, 0.5566394329071045, -1.4594378471374512, -4.5646162033081055, -5.272243976593018, -9.795845985412598, 6.382871627807617, 0.41589879989624023, -1.049994707107544, -1.7340461015701294, 2.869788646697998, 2.1651408672332764, -2.6697440147399902, 3.078162670135498, 5.02573823928833, 8.089812278747559, -1.2453148365020752, -1.2837234735488892, 2.3981895446777344, -0.40671250224113464, 0.8917433023452759, -0.208541139960289, -0.7787855267524719, -3.6227822303771973, -0.5776954293251038, -2.2232367992401123, 2.5003011226654053, -2.019787073135376, 0.7274753451347351, 3.0194413661956787, 4.773735046386719, 3.517237901687622, 3.1526851654052734, -4.527488708496094, -0.16323116421699524, -1.1261357069015503, 1.8536638021469116, 0.4532744586467743, -2.836188554763794, 4.577495098114014, 5.286795139312744, 7.064968109130859, 0.1866554617881775, -2.9242544174194336, 0.6724872589111328, 0.6216610670089722, -3.4464094638824463, 1.1983251571655273, -1.3094269037246704, 4.681031227111816, 0.6702309846878052, -6.362259864807129, -0.688500702381134, 5.693490028381348, 1.2416225671768188, 1.28311026096344, 2.8175783157348633, 3.8522322177886963, 0.26647883653640747, -2.239570379257202, -0.9182368516921997, -3.074239492416382, -1.8701211214065552, 1.2889851331710815, -4.290294647216797, 2.375248908996582, 0.4339570701122284, 0.2778920829296112, 0.6829726696014404, 3.0830774307250977, -3.675205707550049, 1.6028990745544434, -0.22894470393657684, -7.2837042808532715, 2.5393447875976562, -4.22322416305542, 3.4844324588775635, -3.6422672271728516, 1.4627742767333984, 4.3467488288879395, -0.5839998126029968, 3.1924214363098145, -2.7330832481384277, 4.1129913330078125, -0.8380740880966187, -1.5528520345687866, 1.7652696371078491, 7.716116428375244, -0.6530895829200745, -0.20733924210071564, -1.6033780574798584, 4.455134868621826, -0.27130013704299927, 0.8816431164741516, -1.3923516273498535, -0.6617208123207092, 2.6671974658966064, -0.05917520448565483, -5.003358840942383, -1.9684878587722778, 0.10793711990118027, 2.4916586875915527, 2.268433094024658, 5.54506778717041, -2.0640740394592285, 1.7277058362960815, -2.7058372497558594, 1.0218942165374756, 0.582929253578186, -6.503602981567383, 0.42913779616355896, -4.644845962524414, 4.278083324432373, 2.9643821716308594, -1.710801362991333, 0.8931265473365784, -1.659030556678772, 1.504213809967041, 5.229799747467041, 0.7327997088432312, -0.49932798743247986, 0.13798613846302032, -1.421783447265625, -2.094985008239746, 5.977466583251953, -0.5890392661094666, 6.39287805557251, 1.2011175155639648, -1.7893556356430054, 0.16755923628807068, 1.757866382598877, 4.309936046600342, 0.07853381335735321, 3.9371891021728516, -12.30951976776123, 0.4176805317401886, 1.974928855895996, -0.39577925205230713, 4.15242862701416, -1.1621555089950562, 4.811181545257568, 2.6684939861297607, -1.5190460681915283, 2.4327995777130127, 1.4543341398239136, 3.9715664386749268, -1.4093410968780518, -0.05927426367998123, 2.330889940261841, 0.25584790110588074, -3.6508047580718994, 1.7316607236862183, 1.331916332244873, -0.7770658135414124, -5.6641459465026855, 0.6652405261993408, 1.1084612607955933, -0.9762104749679565, -0.09257376194000244, 3.9831326007843018, 3.883087635040283, 0.784273624420166, 4.158698558807373, -0.05927426367998123, 2.695214033126831, 2.3822567462921143, 1.1150643825531006, 8.782952308654785, -16.230714797973633, 2.369525671005249, -0.0366978794336319, -1.1869404315948486, 2.5925748348236084, -3.080597400665283, 1.7957221269607544, -1.7052757740020752, -4.70383882522583, -1.9316134452819824, -0.6188980340957642, -0.46124380826950073, -0.7715948224067688, 0.07843790203332901, 3.8622546195983887, 0.16843880712985992, -2.3815789222717285, -4.805735111236572, 2.5103840827941895, 2.0434682369232178, 3.0859601497650146, -0.4163512885570526, 3.327559232711792, -1.2197068929672241, -4.232398509979248, 2.7434377670288086, -1.254559874534607, -7.2874345779418945, 2.7113068103790283, -0.4042491018772125, 2.6253886222839355, -2.3394713401794434, 4.311675071716309, 2.5713000297546387, -1.1997685432434082, -0.02489653415977955, 4.820194721221924, 7.670376777648926, -6.196920394897461, -0.3942940831184387, -4.629237651824951, 0.5553424954414368, 1.5063902139663696, 2.1457321643829346, 8.33336067199707, -0.04983382672071457, -2.800584554672241, 4.026691436767578, -3.003014087677002, -3.7022297382354736, 1.587872862815857, -2.642293691635132, 1.9912350177764893, -1.1197278499603271, 4.826321601867676, 1.626098871231079, -1.825422763824463, 2.42099928855896, 1.6250027418136597, -0.9817830920219421, 0.4409900903701782, 3.950660467147827, -1.661285161972046, 0.05839279294013977, -1.4802918434143066, 0.8306630253791809, 4.516901016235352, 0.7730497717857361, 2.794560432434082, -4.902639865875244, -1.813082218170166, 2.1254465579986572, -7.617647647857666, 2.6856844425201416, -7.987597942352295, -2.4638421535491943, -0.7079337239265442, -6.693006992340088, 3.444098949432373, 1.2431715726852417, -2.246553659439087, -2.0507757663726807, -1.4226385354995728, 1.1929928064346313, 0.0, -2.5188872814178467, -1.6409510374069214, -3.710270643234253, -4.90231466293335, -6.2938232421875, 2.7015957832336426, -1.0905262231826782, 1.575599193572998, -0.718394935131073, 3.8604824542999268, 3.6152279376983643, -3.981513023376465, 3.3919403553009033, 0.9896569848060608, 7.98836088180542, 4.450562477111816, 1.6486661434173584, 2.7409934997558594, -0.4891795217990875, 0.3726423978805542, 1.713722586631775, -3.354494094848633, -0.8210343718528748, 5.4579315185546875, -1.404457926750183, -0.04782331362366676, -2.104728937149048, 0.11705081164836884, 2.638279914855957, -0.4660489559173584, 4.274331092834473, 2.5486350059509277, -2.8781542778015137, -1.2010642290115356, 0.029314110055565834, 0.8218962550163269, -0.7086274027824402, -3.310321807861328, 4.172356128692627, 5.086695194244385, 7.537020206451416, 0.37853801250457764, -2.239539384841919, 1.0352578163146973, 0.9330074787139893, -2.3711397647857666, 2.8102867603302, -1.0573863983154297, 3.21445894241333, 0.9957796335220337, -4.262629985809326, -3.428755044937134, 3.7568166255950928, -2.6706607341766357, 0.35946765542030334, 3.24196195602417, 4.548763275146484, -2.4323089122772217, -2.1111249923706055, -1.630607008934021, -6.6313605308532715, -1.8472764492034912, 2.3620033264160156, -2.6915271282196045, 5.3365960121154785, -0.06842995434999466, -1.1483232975006104, -0.10671880841255188, -0.29821640253067017, -6.428118705749512, 1.0802611112594604, -0.2122511863708496, -4.369121074676514, 1.8966823816299438, -3.9949791431427, 1.7650821208953857, -3.3472468852996826, 0.02928874082863331, 3.7218174934387207, -1.0554413795471191, 4.425843715667725, -2.836636781692505, 5.58339262008667, -0.19597174227237701, -0.967758059501648, 3.022834539413452, 10.712761878967285, -1.479009985923767, 0.8436170816421509, -1.7951058149337769, 2.467782497406006, -1.6864843368530273, -2.819551944732666, -1.5999716520309448, -6.435129642486572, 2.7962028980255127, -0.0852244570851326, -4.522615909576416, -2.917188882827759, -1.7686101198196411, 2.9192676544189453, 0.4944571256637573, 1.5632917881011963, -2.4238219261169434, 2.697169065475464, -0.7537413239479065, 0.7223515510559082, 0.9093635678291321, -7.649734973907471, -1.0928853750228882, -4.779917240142822, 3.2520620822906494, 3.523790121078491, 0.21632355451583862, 3.5045697689056396, -3.1657400131225586, 1.4382870197296143, 3.211385488510132, 0.6503382325172424, -0.49773097038269043, 1.7737034559249878, 0.9169600009918213, -5.1948137283325195, 7.658539295196533, -0.5731857419013977, 5.524037837982178, 3.492086172103882, -2.3233866691589355, -1.5586657524108887, 0.0827883630990982, 3.440790891647339, 1.523751974105835, 3.9537034034729004, -9.36740779876709, 3.106058120727539, -2.9802820682525635, -0.32554197311401367, 8.001788139343262, -0.6899802088737488, 5.502490043640137, -0.6499661207199097, -3.7347164154052734, 3.3448686599731445, 1.712340235710144, 4.319647312164307, -5.3298492431640625, 1.597688913345337, 1.1277639865875244, -0.6213420629501343, -2.0249745845794678, 0.8058986067771912, 3.7537412643432617, -0.2670475244522095, -4.201908111572266, 0.11296523362398148, 0.5064859390258789, 0.2715516686439514, 1.4374440908432007, -3.300239324569702, 5.730855464935303, -0.8024861812591553, 1.852778673171997, 1.597688913345337, 1.764470100402832, -2.105423927307129, 4.342581272125244, 4.894725322723389, -17.038005828857422, -2.0713789463043213, -2.0997416973114014, -1.14682936668396, 3.4182398319244385, -3.650071620941162, 0.6143362522125244, -1.4824185371398926, -4.01134729385376, -0.4894266128540039, 0.24639612436294556, 1.1749712228775024, -2.153515100479126, -1.6638461351394653, 2.163957118988037, -0.28397196531295776, -0.8682880997657776, -2.431643486022949, 2.3291208744049072, 2.9987010955810547, 3.549886465072632, 0.1867714673280716, 1.3980047702789307, -2.458832263946533, -0.18574802577495575, 4.280473709106445, 3.1252167224884033, -6.431295394897461, 2.720353126525879, 1.364321231842041, 1.6789525747299194, -1.6342053413391113, 1.1585705280303955, 2.686655044555664, 0.6983086466789246, 1.466930866241455, 4.32322359085083, -0.7920379042625427, -6.7994914054870605, 1.626326084136963, -5.278979301452637, 0.18119549751281738, 0.24394533038139343, 3.7935638427734375, 10.376944541931152, 0.5088838934898376, -1.1870592832565308, 6.849475860595703, -4.693948745727539, -6.194612503051758, 1.3762019872665405, -2.0547544956207275, 1.1361721754074097, 1.6937482357025146, 4.681354999542236, -0.5747492909431458, -5.641164779663086, -0.2567077875137329, 1.285200595855713, -2.837012529373169, -0.9732993841171265, 4.592499256134033, -1.5419219732284546, 0.6225359439849854, -1.985905647277832, 4.135743618011475, 1.8080674409866333, 2.522183656692505, 3.317603349685669, -4.470411777496338, -0.5138221383094788, 0.6017963886260986, -5.477963447570801, 1.5076377391815186, -9.326752662658691, -2.750545024871826, 0.9268273115158081, -9.056111335754395, 0.040586140006780624, 0.7705244421958923, -0.11152057349681854, -0.8235018253326416, -0.561819314956665, 1.6436927318572998, 1.1193656921386719, -4.329782485961914, -1.5631802082061768, -6.853168487548828, -3.7849302291870117, -4.4744486808776855, 3.563248872756958, 2.4050819873809814, 0.7628827095031738, -2.0931687355041504, 2.503389358520508, 1.1173421144485474, -2.0706863403320312, 3.3548436164855957, 3.274531126022339, 6.647198677062988, 0.5494948625564575, 1.6105742454528809, 1.046617031097412, -1.1477952003479004, 1.231205940246582, -1.8146334886550903, -0.9379037022590637, 1.1861019134521484, -0.17380312085151672, -1.592538595199585, -0.06821758300065994, -2.8387506008148193, 1.5507858991622925, 2.0026051998138428, 0.5749064683914185, 3.029684066772461, 0.45347779989242554, -2.688371419906616, -0.8355295062065125, -0.1385081261396408, 3.3543295860290527, -0.6867719292640686, 1.2379658222198486, 4.824290752410889, 3.054857015609741, 7.401661396026611, 1.4656890630722046, -1.8855047225952148, 0.004929936490952969, 0.5502994060516357, -3.291553497314453, 2.2017722129821777, 0.05063822865486145, 4.7925004959106445, 0.9641202092170715, -4.262049674987793, 1.769937515258789, 2.3977532386779785, -3.812098741531372, 1.0743205547332764, 3.983656883239746, 4.6928181648254395, -1.176077961921692, -1.1359702348709106, -0.8227681517601013, -6.395390510559082, -0.8557003140449524, 1.7406558990478516, -2.4685871601104736, 3.148207426071167, 0.7575968503952026, -3.431415557861328, -0.6446489095687866, 1.6353718042373657, -4.898283004760742, 0.7531980872154236, -0.3763757050037384, -3.0144267082214355, 1.867685079574585, -2.7971138954162598, 1.5066112279891968, -1.7969530820846558, 0.2874393165111542, 3.2506754398345947, 0.7377263307571411, 2.0487329959869385, -1.3487424850463867, 3.9872093200683594, -6.073116779327393, -0.2664876878261566, 2.2769923210144043, 9.5310697555542, -0.9994982481002808, 0.3039654791355133, 0.5290276408195496, -0.6269745826721191, 0.44772839546203613, -4.439863681793213, -1.1374287605285645, 3.596736431121826, -0.007198031526058912, 1.3960506916046143, -4.088687896728516, -5.750314235687256, -1.6067568063735962, -4.482011795043945, -1.226191759109497, 1.9859920740127563, -1.8483368158340454, 3.6159727573394775, -2.9751088619232178, 1.225681185722351, 4.1744513511657715, -5.955682754516602, -0.6895480751991272, -3.0469553470611572, 6.918373107910156, 3.4994699954986572, -5.833517074584961, 3.83162522315979, -1.680855631828308, 0.7883700132369995, 2.4071099758148193, 1.993879795074463, 0.0741400420665741, 3.1036298274993896, 3.495455741882324, -3.767416477203369, 8.24162483215332, 1.320379376411438, 2.8359453678131104, 2.2881486415863037, -2.705142021179199, -3.6757044792175293, -0.27346381545066833, 2.905517578125, 2.8618979454040527, 3.3103787899017334, -5.6753740310668945, 3.141575813293457, 6.302276134490967, -0.22367535531520844, 9.201584815979004, 0.6917708516120911, 5.225830554962158, 1.3196420669555664, -2.773817539215088, 2.1746327877044678, 1.3549449443817139, 3.6030173301696777, -4.30690336227417, 2.9302351474761963, 3.2176806926727295, -3.7156128883361816, -1.1416665315628052, 0.20749948918819427, 1.6565942764282227, -0.5407984852790833, -8.922337532043457, 0.3564528226852417, 0.3212123215198517, -0.9017447829246521, 2.747206449508667, 0.08821476250886917, 5.925476551055908, 0.346050888299942, 0.889453113079071, 2.9302351474761963, 4.948166847229004, -2.7656071186065674, 2.147244691848755, 1.021317481994629, -14.201499938964844, -2.951815128326416, -0.42967110872268677, -1.13459050655365, 2.6462526321411133, -2.39632248878479, 1.6237776279449463, -2.3589682579040527, -3.9965076446533203, 0.3467252850532532, -0.3936266005039215, 2.5032825469970703, 1.5156950950622559, -3.7955586910247803, 1.178782343864441, -1.0490754842758179, -2.3263871669769287, -1.8665518760681152, 1.857406497001648, 2.568099021911621, 2.0137875080108643, -0.021334333345294, 1.753701090812683, -2.373781681060791, -1.1503559350967407, 2.897038698196411, 1.6190447807312012, -5.788000583648682, 2.174665927886963, 3.532095432281494, 2.0043866634368896, -1.2729614973068237, 0.5002628564834595, -0.07270664721727371, 0.9452328681945801, 1.675984263420105, 1.7949422597885132, -1.8225936889648438, -6.0850934982299805, 0.45211485028266907, -1.2882070541381836, -0.13642489910125732, 1.436517357826233, 5.488832473754883, 6.76908016204834, -3.2349660396575928, -3.37719464302063, 5.876462459564209, 1.5037065744400024, -7.79701042175293, 1.6895232200622559, 3.9830310344696045, 1.891542673110962, 1.0805487632751465, 4.571610927581787, 0.21674957871437073, -3.4113707542419434, -0.4327927827835083, 0.8878944516181946, -1.9245902299880981, -2.0743227005004883, 5.338139057159424, -2.1179356575012207, 0.3487517535686493, 0.37435299158096313, -0.11870162189006805, 0.49383774399757385, 0.5571911334991455, 4.515632629394531, -3.435736656188965, -0.01005617156624794, -0.3443603217601776, -4.930528163909912, 0.4499049186706543, -8.176920890808105, -1.5268518924713135, 0.9766064286231995, -7.727787971496582, 0.5596927404403687, 1.0064531564712524, 5.080010414123535, 1.2589843273162842, -1.2463221549987793, -0.7555493712425232, 1.4068059921264648, -1.1905348300933838, -1.7174737453460693, -4.903552532196045, -3.9688668251037598, -3.6230762004852295, 4.751999855041504, 1.7103946208953857, -1.0637702941894531, -0.8190466165542603, 2.05066180229187, 3.6348516941070557, -3.3057193756103516, 2.7492051124572754, 5.523576736450195, 5.326322078704834, -1.7132501602172852, 1.3372634649276733, 0.9409838318824768, -1.2473732233047485, 2.016824245452881, -0.8151663541793823, 1.5503053665161133, -3.803823471069336, -1.9532496929168701, -0.5766708254814148, -0.8019552826881409, -2.0933620929718018, 0.030600007623434067, 0.9900187253952026, 4.19834566116333, 3.0563716888427734, 1.6219308376312256, -2.2434515953063965, -0.7881912589073181, -1.3990478515625, 0.9362407922744751, -0.21462911367416382, -4.568791389465332, 2.373173713684082, 3.671511173248291, 6.4001336097717285, -1.0407137870788574, -3.349356174468994, -1.3682228326797485, -0.44423624873161316, -3.4167096614837646, 1.5523744821548462, -1.2118830680847168, 2.121516227722168, -2.5131161212921143, -4.172478675842285, -2.946068525314331, 2.567208766937256, -4.039175033569336, 0.8242985010147095, 2.9777579307556152, 2.9138381481170654, -0.7679113745689392, -2.3757822513580322, -2.9786553382873535, -4.658596515655518, -1.6705801486968994, 1.0972869396209717, -1.4666813611984253, 3.2010529041290283, -0.9416294693946838, -0.5870585441589355, -0.44527995586395264, 1.2228899002075195, 0.14032724499702454, 0.17976269125938416, 0.21007488667964935, -3.170254945755005, 1.0606689453125, -1.8971608877182007, -1.3863152265548706, -3.5828537940979004, 0.86952805519104, 3.1888482570648193, 1.2879047393798828, 3.0318896770477295, -2.2849645614624023, 2.4207537174224854, -6.598206996917725, -1.6270077228546143, 1.1503850221633911, 6.5523810386657715, -1.1560076475143433, 0.7478654384613037, -1.2328325510025024, 1.684943437576294, -3.883892059326172, -2.9334840774536133, -3.1460938453674316, 1.9404710531234741, -0.5719281435012817, -3.107450246810913, -4.989129543304443, -3.3094871044158936, -0.7458354234695435, -3.2342896461486816, -1.5045288801193237, 3.61557936668396, -5.2017598152160645, 1.4513161182403564, -2.8139004707336426, 1.6511194705963135, 2.104495048522949, -8.654178619384766, -0.3636825978755951, -4.679290771484375, 2.2402536869049072, 1.8611618280410767, 3.6308040618896484, 0.7130962610244751, -3.1678290367126465, 0.14733903110027313, 2.0472304821014404, 1.6684616804122925, -0.8078219890594482, 1.5509698390960693, 7.2431840896606445, -6.569781303405762, 8.45263385772705, 0.021614741533994675, 0.3118339776992798, 3.789564371109009, -1.9647178649902344, -2.0154225826263428, 1.4208219051361084, 2.0999507904052734, 0.5822597146034241, 3.0460433959960938, -8.348353385925293, 0.6031652688980103, -2.7215559482574463, -2.2024381160736084, 2.085416316986084, 0.7479037046432495, 5.587876319885254, 3.2085533142089844, -2.727114677429199, 2.854954242706299, 1.1580262184143066, 3.6597840785980225, -7.117908954620361, 1.4377224445343018, 2.564338445663452, -6.474305629730225, -0.7384384870529175, -0.6523295640945435, 0.9028198719024658, -0.6322414875030518, -9.100046157836914, 0.2056194245815277, 0.9015139937400818, -0.16574595868587494, 0.5411239266395569, 0.2197583168745041, 4.988534927368164, -0.9261143207550049, -2.141749143600464, 1.4377224445343018, 2.4608840942382812, -2.219107151031494, -4.647528171539307, -0.03220503777265549, -6.700898170471191, -7.663797855377197, -2.8285934925079346, -3.058112621307373, 2.7655842304229736, -2.284677028656006, 0.9595572352409363, -0.548659086227417, -10.43242359161377, -0.6881668567657471, -0.04471084848046303, 0.952125608921051, -3.56121826171875, -2.0448732376098633, 1.3411753177642822, -2.2504796981811523, -4.006871700286865, -0.4069230556488037, -2.0532119274139404, -2.834599018096924, 1.5227887630462646, -0.2696932852268219, 1.5073319673538208, -2.0787668228149414, 0.33368682861328125, 2.9348039627075195, -1.273741602897644, -3.112031936645508, 2.8276002407073975, 1.2780933380126953, 2.8025624752044678, -3.7613589763641357, -2.19152569770813, 0.6249592304229736, 2.6668026447296143, -7.419085502624512, 1.00941002368927, -2.2765047550201416, -8.423810958862305, 1.2012666463851929, -3.9452428817749023, -0.4492934048175812, 1.8386434316635132, 5.092883586883545, 11.545666694641113, 0.5876800417900085, -2.5639922618865967, 4.160080432891846, -0.11765005439519882, -3.328712224960327, 1.0649930238723755, 4.177945137023926, 1.720413327217102, 2.8540947437286377, 1.8211140632629395, -1.0008567571640015, -6.81032657623291, 2.9404313564300537, 1.404039978981018, -0.9503609538078308, 2.0036821365356445, 4.982130527496338, -0.408775269985199, 0.3496638238430023, 0.9449977278709412, 3.540294647216797, 2.0989487171173096, 1.644019603729248, -0.3339207172393799, -0.7767883539199829, 2.6680030822753906, 3.3708183765411377, -1.7042709589004517, 1.1602561473846436, 7.420934200286865, -3.6300837993621826, 0.9716293215751648, -5.807289123535156, -1.3702387809753418, 0.4714033901691437, 4.2293500900268555, -1.5904433727264404, 0.21062462031841278, 1.089269995689392, 1.4231563806533813, -0.1744358092546463, -1.268959403038025, -4.5204267501831055, -5.477728843688965, -2.8240787982940674, 5.179244041442871, 1.0413081645965576, 2.1760201454162598, -1.0109717845916748, 1.5514987707138062, 2.377932071685791, -1.9201924800872803, 3.820641040802002, 7.284111976623535, 5.520272254943848, -0.7729359269142151, 2.3499515056610107, 1.5924206972122192, 1.9250526428222656, 3.649308919906616, 1.722493290901184, 3.119591236114502, -5.123800754547119, -1.2945982217788696, -1.9661352634429932, 0.43680158257484436, -0.3596391975879669, -0.0060184793546795845, 1.5321894884109497, 5.534552574157715, 3.1630477905273438, 2.2259140014648438, -1.5458354949951172, -0.6415541768074036, -1.327519416809082, 5.848036766052246, -0.277275949716568, -2.7258214950561523, 8.983728408813477, 4.181296348571777, 8.230001449584961, -0.22721101343631744, -3.0222177505493164, -3.1367504596710205, 1.0838885307312012, -3.157478094100952, 1.3322398662567139, -1.2524129152297974, 4.66450834274292, 0.5950819253921509, -6.665124416351318, -2.698607921600342, 2.3543708324432373, -1.8213210105895996, 1.1830857992172241, 1.923827886581421, -0.760110080242157, 0.9104762673377991, -3.738046407699585, -0.4647676348686218, -4.1427178382873535, -0.3831820487976074, 1.6426798105239868, -3.618821859359741, 2.9518675804138184, -0.2399887591600418, -2.9562056064605713, 0.06448905915021896, 3.3274307250976562, -1.905121922492981, -0.8450977206230164, -1.1922688484191895, -3.142606496810913, 0.7285666465759277, -2.549133539199829, 0.4421394169330597, -3.795156240463257, 1.387549877166748, 3.3399391174316406, -0.8668213486671448, 3.2584245204925537, -2.6764628887176514, 5.010272026062012, -6.181671619415283, -1.0049657821655273, 1.4567052125930786, 5.502575874328613, 0.10065248608589172, 0.4051595628261566, -2.320622205734253, 2.1638343334198, -0.8173959255218506, -1.5222053527832031, -2.1873931884765625, 0.016219088807702065, 1.2049041986465454, 0.3889085054397583, -5.107486724853516, -2.8687326908111572, -0.27658361196517944, -2.212345600128174, 0.021662961691617966, 3.802607774734497, -1.0443391799926758, 0.7273935675621033, -2.0387797355651855, 1.5555346012115479, 1.1457875967025757, -5.074282169342041, -0.44866183400154114, -4.89981746673584, 1.7497683763504028, 0.7937167286872864, -4.128537178039551, 1.3465498685836792, -3.2285635471343994, -1.0082004070281982, 4.224420070648193, -0.017375828698277473, -0.5481857657432556, 0.355683833360672, -0.9758191704750061, -5.150608539581299, 8.661431312561035, 1.7102972269058228, 6.069305419921875, 1.6507939100265503, -1.6222193241119385, 0.3848411738872528, 2.0767223834991455, 4.953408241271973, 0.4341393709182739, 3.2734689712524414, -8.151078224182129, 0.7525059580802917, -3.403975009918213, 0.1293061226606369, 9.351573944091797, 1.6222476959228516, 3.810816764831543, -1.3131297826766968, -2.0036816596984863, 1.7917457818984985, 1.2020213603973389, 6.126711368560791, -2.6772994995117188, 0.1921471208333969, 2.155578374862671, -5.689667701721191, -3.066723346710205, 1.6370482444763184, 1.7917158603668213, -0.37233829498291016, -7.8262434005737305, 0.43378037214279175, 2.0655646324157715, 0.27529433369636536, 0.33702653646469116, 0.35704001784324646, 5.0472211837768555, -0.4078369140625, 3.2416584491729736, 0.1921471208333969, 3.6868250370025635, 1.358014464378357, 5.066649913787842, 4.067649841308594, -12.161574363708496, 0.10643614083528519, -0.8627032041549683, -0.7742026448249817, 0.36656349897384644, -3.512364625930786, -1.4094651937484741, -2.0323710441589355, -5.410150527954102, -2.560826301574707, 0.08162921667098999, -0.2487751692533493, 0.6658175587654114, 0.27220267057418823, 1.9263715744018555, 0.5074246525764465, -2.5499589443206787, -4.0323944091796875, 2.469508409500122, 1.1036255359649658, 0.1201891079545021, 0.004852276295423508, 1.9350694417953491, -1.224437952041626, -4.352379322052002, 4.6715264320373535, -1.763862133026123, -7.667885780334473, 1.7221843004226685, -0.46145954728126526, 2.9216907024383545, -3.1730868816375732, -0.12942752242088318, 0.7451796531677246, 2.7273268699645996, -7.742612361907959, -0.5181268453598022, -2.001314163208008, -9.323939323425293, 1.0886855125427246, -3.6449198722839355, -1.5412348508834839, 2.896249532699585, 3.335758686065674, 9.3460111618042, -0.8028542995452881, -3.4282145500183105, 6.793041706085205, 2.4248359203338623, 2.0088813304901123, -0.4253086447715759, -1.682320237159729, 1.928094744682312, 9.379493713378906, 6.770745277404785, -0.4260491728782654, -2.110445976257324, 3.4745450019836426, 1.2782832384109497, -2.0395843982696533, -1.5912364721298218, 6.408626556396484, 0.7830979228019714, 0.9082697033882141, 0.5334317088127136, 2.3645193576812744, 3.8102169036865234, -0.30671632289886475, -5.231895923614502, -3.7392754554748535, 2.484347105026245, -0.19655703008174896, -1.4960163831710815, 0.19385994970798492, 9.447469711303711, -2.586789608001709, -1.0300817489624023, -7.287191390991211, 3.8472747802734375, 0.3910062909126282, 5.413283348083496, -1.9347000122070312, -0.5126025676727295, 2.7803313732147217, 2.3912153244018555, 0.7399020791053772, -0.05316217988729477, -4.034928798675537, -6.598367214202881, -2.3076119422912598, 6.210780143737793, -0.3554634153842926, 2.8304367065429688, -1.3136060237884521, 2.21987247467041, 2.340951681137085, -4.537911415100098, 2.45524001121521, 6.855317115783691, 3.4767799377441406, -0.16312749683856964, 0.4272020757198334, 1.0800888538360596, -0.7739376425743103, 2.2776269912719727, 0.4332098662853241, 1.9994112253189087, -2.3838043212890625, 0.4229965806007385, -3.462942600250244, 1.6515467166900635, -0.6842508912086487, -1.067629337310791, 1.7868484258651733, 5.476977348327637, 3.236649513244629, 3.5736024379730225, -1.3266860246658325, -0.7958810329437256, -1.2488230466842651, 2.363619804382324, 0.42439505457878113, -6.526243209838867, 10.470224380493164, 5.099715232849121, 6.833526134490967, 0.19015373289585114, -3.46071720123291, -1.6747220754623413, 0.7552698254585266, -2.2063655853271484, 1.5987648963928223, -1.3363826274871826, 4.2444658279418945, 0.14726980030536652, -7.096651554107666, -0.4215668737888336, 4.296032905578613, -0.617455005645752, 1.395603060722351, 2.7321367263793945, -3.8568496704101562, 0.12784641981124878, -3.372262477874756, 0.9938666820526123, -2.2025327682495117, 0.44604504108428955, 3.2499489784240723, -4.243147850036621, 4.393757343292236, 0.08708309382200241, -0.5503683090209961, 0.20328976213932037, 4.03946590423584, -3.247175931930542, 0.05835140496492386, 0.002136858180165291, -4.936398506164551, 1.5256842374801636, -2.573336362838745, 0.7568718194961548, -3.5984020233154297, 3.8210272789001465, 3.544295310974121, -0.773726761341095, 1.8421878814697266, -2.6391634941101074, 5.129928112030029, 0.6714573502540588, -1.5464805364608765, 0.7993690371513367, 9.325518608093262, -0.7326964735984802, 0.577301025390625, -2.1292614936828613, 2.7400503158569336, -0.5705595016479492, -0.4223589301109314, -1.6628410816192627, -0.9386576414108276, 2.4674341678619385, 0.11678388714790344, -5.23731803894043, -2.703770637512207, 0.0034477142617106438, -4.526813507080078, 1.542946219444275, 3.959970235824585, -2.846524715423584, 2.9840667247772217, -2.3615376949310303, 1.61729896068573, 0.660710871219635, -6.27099609375, 0.5727534890174866, -4.800039291381836, 5.529999256134033, 3.155081033706665, -3.3337345123291016, 1.9221827983856201, -3.2223691940307617, 1.9753872156143188, 4.127315044403076, 2.372931480407715, -0.6912301182746887, -0.22691228985786438, -0.04624452441930771, -6.22831916809082, 6.5483598709106445, -1.8987981081008911, 6.431211471557617, 1.753563404083252, -3.0923030376434326, 0.9903794527053833, 0.5453587770462036, 5.058017730712891, -0.06372970342636108, 2.5755159854888916, -9.908390045166016, 1.606549859046936, -3.695350170135498, 0.2696591913700104, 3.337071180343628, 0.10157749801874161, 5.363165855407715, 0.7369852066040039, -0.12219053506851196, 2.025651693344116, 0.5126407146453857, 3.129206657409668, -2.4834132194519043, -0.3915986120700836, 1.1702096462249756, -1.0684951543807983, -3.8319711685180664, -1.5526626110076904, 2.649646282196045, -0.5937941074371338, -7.379628658294678, 0.5540061593055725, 1.0769813060760498, 0.9929661750793457, -0.19232787191867828, 1.2876836061477661, 4.812345027923584, 1.1282439231872559, 4.1720709800720215, -0.3915986120700836, 4.44909143447876, 2.990713357925415, 3.775799512863159, 0.3664458692073822, -13.910320281982422, 0.5182635188102722, -1.2341890335083008, -0.5151582956314087, 1.215761423110962, -4.243378639221191, -0.22863337397575378, -0.8042955994606018, -7.182612419128418, -4.096338748931885, -0.1787165403366089, -0.7641410827636719, -1.599697232246399, 0.8880714178085327, 2.195350170135498, -0.05330311879515648, -1.4201538562774658, -2.155947208404541, 2.27397084236145, -0.4184083640575409, 0.2994380295276642, -0.15368527173995972, 2.685009717941284, -0.22466471791267395, -4.93710994720459, 6.72894811630249, -1.1281155347824097, -7.909389019012451, 2.3222310543060303, -1.0183744430541992, 2.0209193229675293, -0.8380892872810364, 1.0423537492752075, 0.3858133852481842, 5.516642093658447, -5.76620626449585, -1.2639646530151367, -1.4385254383087158, -8.674102783203125, 2.1589715480804443, -4.298976898193359, -2.094998836517334, 1.7379857301712036, 0.6754649877548218, 9.81762409210205, 0.773123562335968, -2.6391994953155518, 6.109748840332031, 1.19954252243042, 1.061550498008728, 1.110632061958313, -4.993690013885498, 2.53963041305542, 7.968160152435303, -0.32530245184898376, 0.3397068381309509, -4.086778163909912, 2.1626741886138916, 1.9610716104507446, -1.7858716249465942, 1.1285278797149658, 4.860071659088135, -0.6585500240325928, -0.390011191368103, -3.0469484329223633, 2.269226551055908, 6.946754455566406, 1.564010739326477, 1.5300463438034058, -6.886139869689941, -2.1190884113311768, 2.2597696781158447, -6.565515518188477, 1.9300477504730225, 8.907013893127441, -0.7363572120666504, -1.5551202297210693, -6.211208820343018, 3.89725923538208, -0.6684141159057617, -3.656717300415039, -1.7988635301589966, -0.32509639859199524, 0.6083500385284424, 2.1547062397003174, -2.982734203338623, -0.891675591468811, -3.2999560832977295, -5.976106643676758, -0.05590352788567543, 2.377868890762329, -0.783200740814209, 2.4134628772735596, -2.1604080200195312, 3.3144073486328125, 3.907383680343628, -4.948667526245117, 3.3762283325195312, 1.310443639755249, 3.8778128623962402, 4.5553669929504395, 2.4958972930908203, -0.10468222945928574, -0.6752355694770813, 1.6360557079315186, -0.40813717246055603, -3.0508530139923096, -6.955367088317871, 5.220164775848389, -0.8681521415710449, -0.8910348415374756, -1.7212741374969482, -0.9625893235206604, -0.07009895890951157, -0.14917388558387756, 2.9342751502990723, 2.6115849018096924, -1.3837064504623413, -0.8917288184165955, -1.0191726684570312, 0.6394292116165161, -0.4953387379646301, -6.111562252044678, 8.525896072387695, 3.997156858444214, 3.5697553157806396, -0.0236950870603323, -2.96226167678833, 1.5845434665679932, 0.4122771620750427, -2.761807441711426, 2.1090614795684814, -1.2182165384292603, 2.6408116817474365, 0.9250891208648682, -6.06645393371582, -0.15497736632823944, 2.290140390396118, -2.382373094558716, 1.6054677963256836, 2.8161556720733643, -3.580944061279297, 0.012833314016461372, -4.132839679718018, -2.9687135219573975, -6.740135192871094, -0.40480390191078186, 2.855546474456787, -3.3995516300201416, 4.137750148773193, 1.2421834468841553, -0.3418586850166321, 0.521337628364563, 0.4894106090068817, -6.475490570068359, -0.37673109769821167, -0.9123833179473877, -2.520085573196411, 0.8522179126739502, -3.8040809631347656, -0.17231440544128418, -3.7405025959014893, -2.2607572078704834, 2.8719491958618164, -1.148942470550537, 3.534675121307373, -2.3107826709747314, 6.33061408996582, 0.5074442028999329, -1.3433454036712646, 1.7477009296417236, 10.105843544006348, -0.655222475528717, 1.6769400835037231, -2.32414174079895, 1.9674128293991089, -1.739787220954895, -4.3127055168151855, -0.226421058177948, -5.427590847015381, 0.5027016401290894, -0.2514354884624481, -5.324918270111084, -2.4868927001953125, 0.7298874855041504, -4.623597621917725, -0.5426408648490906, 2.7620158195495605, -1.3324707746505737, 3.5144853591918945, 0.008626794442534447, 1.708165168762207, 1.0483605861663818, -6.788225173950195, 0.2705998718738556, -5.022246837615967, 0.8437908291816711, 3.623945474624634, -0.6637362241744995, 2.1863186359405518, -5.663042068481445, 1.6278356313705444, 3.349879741668701, 1.3126757144927979, -0.3014701306819916, 1.362890601158142, 0.7700770497322083, -11.34440803527832, 7.579649448394775, 2.345442295074463, 5.618307590484619, 2.579502820968628, -1.5418847799301147, -0.9247220158576965, -0.4549005627632141, 4.008336544036865, 0.9468575119972229, 0.19635109603405, -9.190752983093262, 3.9485034942626953, -5.560521125793457, -0.9450855255126953, 8.265307426452637, 0.9477645754814148, 4.420559883117676, -3.071587562561035, -2.358349323272705, 3.8971147537231445, 1.2701083421707153, 2.199707508087158, -4.133083820343018, 1.2280069589614868, 1.0301737785339355, 1.7560126781463623, -2.7156195640563965, -1.047898292541504, 1.4640330076217651, 0.04414260759949684, -3.6344141960144043, -0.2500648498535156, 0.6522857546806335, 0.014144320040941238, 0.9151743650436401, 3.330052137374878, 5.113773822784424, -0.577325701713562, 2.005152702331543, 1.2280069589614868, 0.1792590171098709, -1.1977252960205078, -1.0921728610992432, -0.011896942742168903, -15.337944984436035, -2.0282721519470215, -2.807873010635376, -1.755650520324707, 1.5940676927566528, -2.326099395751953, -2.1565675735473633, -1.256868600845337, -5.30149507522583, -1.9866044521331787, 0.35734519362449646, 0.8261640071868896, -0.4556136727333069, -0.990057110786438, 0.9252839088439941, -1.5579479932785034, -0.8949127793312073, -3.057795763015747, 2.0732221603393555, -2.253178358078003, 1.7372876405715942, 0.4100354015827179, 1.4042235612869263, -0.7564442157745361, -1.9133272171020508, 6.500808238983154, 2.483870506286621, -5.417633533477783, 2.823979616165161, 0.5705922842025757, 1.8399535417556763, -1.2594331502914429, 2.519590139389038, -0.5772213935852051, 7.583576679229736, -2.583979368209839, -1.1922433376312256, -0.871289849281311, -6.956530570983887, 2.6244020462036133, -2.2052805423736572, -0.19082988798618317, 1.4527044296264648, 3.98638653755188, 11.402771949768066, -0.41267067193984985, -0.8522011637687683, 5.309435844421387, 0.5090358853340149, -3.5345046520233154, 0.9224392771720886, -2.6825313568115234, 1.7271292209625244, 3.1035003662109375, 0.9338948130607605, -0.4308167099952698, -6.303116798400879, 2.4012951850891113, 0.7978866100311279, -1.458895206451416, -0.6157370209693909, 6.5361456871032715, -1.8330692052841187, 0.07919798791408539, -1.4306479692459106, -1.7695955038070679, 4.306000232696533, 2.9997565746307373, -1.8638702630996704, -5.16710090637207, -1.5068110227584839, 0.14797352254390717, -1.785739779472351, 3.1483936309814453, 6.648416519165039, -1.903605341911316, -0.8256077766418457, -6.236166477203369, 4.992334365844727, -0.7501124143600464, 1.1031157970428467, -2.596660852432251, 0.6934092044830322, 0.8884222507476807, 1.3507376909255981, -3.050187826156616, -1.0641045570373535, -4.320043087005615, -0.08830875158309937, -1.2972177267074585, 4.148017883300781, 1.5471805334091187, 1.7112725973129272, -1.4847056865692139, 3.2786271572113037, 4.452584266662598, -0.6869189739227295, 3.3139419555664062, 3.0764846801757812, 0.26615452766418457, 0.3932066857814789, 1.9854347705841064, -0.7538956999778748, 3.8483800888061523, 3.1216211318969727, -4.0992231369018555, -0.40090540051460266, -0.46579650044441223, -0.7016558647155762, -0.7919576168060303, -0.42792877554893494, -2.066681146621704, 0.8840678334236145, 0.6855548620223999, 2.2353293895721436, 1.3568880558013916, 0.5277923345565796, 2.588001251220703, -0.1851252019405365, -0.7540762424468994, 3.6058244705200195, 0.47926539182662964, -3.8250956535339355, 7.473819732666016, 2.3139944076538086, 3.7476704120635986, 1.1537632942199707, -2.9489049911499023, -0.7551817297935486, -0.12814924120903015, -2.171555757522583, 2.6138675212860107, -0.5386501550674438, 1.217678427696228, 1.6304527521133423, -5.341483116149902, -1.056982159614563, 1.1329593658447266, -5.195812702178955, 1.1686122417449951, 3.7837395668029785, 1.258108377456665, -0.11846858263015747, -4.231341361999512, -2.532299280166626, -5.395472526550293, -0.18807737529277802, 1.6190106868743896, -2.981858730316162, 2.9385366439819336, 2.475841760635376, -0.6872366666793823, 0.18357619643211365, 3.556940793991089, -2.7877659797668457, 2.3525569438934326, -1.0286990404129028, -0.9811609983444214, 0.4574223756790161, -1.2420191764831543, 1.3978796005249023, -2.288701057434082, -0.5039388537406921, 2.961679697036743, -0.12470905482769012, 2.3095550537109375, -1.0060904026031494, 7.884932518005371, -5.579716682434082, -0.6180126070976257, 2.3377575874328613, 8.934922218322754, -1.2088247537612915, 1.1589560508728027, -0.6205959916114807, 3.2155003547668457, 0.030130255967378616, -9.365927696228027, -1.3793543577194214, -0.7070943117141724, 2.563917636871338, 0.9258174300193787, -4.869088172912598, -1.238409161567688, -0.4307611584663391, -5.344155788421631, -1.0812656879425049, 5.011757850646973, -4.845056056976318, 3.9047460556030273, -3.7791590690612793, 1.927025556564331, 3.7660677433013916, -5.91661262512207, 1.3411719799041748, -3.611198902130127, 0.9852645397186279, 2.075404167175293, -2.6623878479003906, 2.1996922492980957, -3.4743645191192627, -1.6088916063308716, 1.2710078954696655, -0.4118403494358063, -0.33162829279899597, 2.65079927444458, 1.8358203172683716, -7.7218852043151855, 5.569261074066162, 3.2940032482147217, 1.7603615522384644, 3.290201187133789, -3.578476667404175, -3.4717776775360107, 0.14595140516757965, 0.9344753623008728, 0.0, 1.965612769126892, -4.672430515289307, 1.276839017868042, -1.891021490097046, 0.0716237798333168, 8.16483211517334, 1.8159314393997192, 4.189931392669678, -0.7775440216064453, -0.4924549162387848, 0.8777750134468079, 1.7804534435272217, 3.840151786804199, -0.3319758176803589, 2.4919979572296143, 3.6910359859466553, -2.1469902992248535, -1.5053949356079102, -3.754070997238159, 1.4960976839065552, -0.8849655389785767, -4.787471294403076, 0.7671106457710266, 1.0429320335388184, -0.2232932448387146, 2.445662021636963, 0.7398468852043152, 5.415430068969727, -1.5675671100616455, -1.2589370012283325, 2.4919979572296143, 0.8467051982879639, -2.994839906692505, -5.238752841949463, 3.42181658744812, -11.003992080688477, 0.6369005441665649, -2.888110876083374, -0.8250775337219238, 1.8915525674819946, -2.2999088764190674, -1.8922652006149292, -1.7932243347167969, -3.074284076690674, -1.1745693683624268, -0.3537958264350891, 2.1143786907196045, -4.546214580535889, -3.5894577503204346, 0.8572286367416382, -2.1902260780334473, -2.600013494491577, -3.2165281772613525, 1.1116106510162354, 0.622770369052887, 1.317928671836853, -0.40874603390693665, 3.842266321182251, -1.8737430572509766, -1.4870682954788208, 6.247493743896484, 1.1607989072799683, -5.791814804077148, 1.3695696592330933, 3.4143664836883545, 1.6777666807174683, -3.488783121109009, 2.7207911014556885, -0.25662070512771606, 6.159351348876953, 1.0396394729614258, -3.926874876022339, -2.079326629638672, -6.225419998168945, 2.8996052742004395, -0.2083805799484253, -0.5840895175933838, 0.87238609790802, 8.4827241897583, 6.452234268188477, -2.107273578643799, -2.891751766204834, 4.907487392425537, 3.0733678340911865, -4.818932056427002, 1.0573261976242065, -1.318514108657837, 0.4400324821472168, 5.472512722015381, 0.9233947992324829, -0.5355697870254517, -3.3154170513153076, 1.9148712158203125, 1.1422455310821533, -0.3878355324268341, -1.511344075202942, 6.612631797790527, -2.6640677452087402, -0.13822311162948608, 1.4598206281661987, -5.479180812835693, 1.183364748954773, 0.7231950163841248, 7.3566060066223145, -3.294583320617676, -1.1700936555862427, -1.517865777015686, 0.3100830912590027, 2.2176432609558105, 8.907868385314941, -0.14236952364444733, -0.7989124655723572, -6.355910778045654, 4.841092109680176, -0.7479350566864014, 6.5355658531188965, 0.6494309902191162, -0.1501961499452591, -0.04272785782814026, 2.1801559925079346, 1.0650211572647095, -1.0294592380523682, -2.905818462371826, -1.5888724327087402, -0.45496466755867004, 6.68025541305542, -0.15747137367725372, -1.67902672290802, 0.31033608317375183, 2.089101791381836, -11.954051971435547, -3.8564634323120117, 2.081639289855957, 7.488089561462402, -6.512484073638916, -2.322617530822754, 2.2814862728118896, 0.43132686614990234, 2.1239333152770996, 1.340411901473999, -5.256763935089111, 4.116982460021973, -2.1693809032440186, -3.2122910022735596, 1.7023835182189941, 0.13062012195587158, -0.5774866342544556, 0.3765402138233185, -0.06732524931430817, 7.2637939453125, 0.24368076026439667, 2.3749284744262695, 1.0463247299194336, -0.4046221971511841, -1.7558790445327759, 2.62960147857666, 0.3509587347507477, -5.766086578369141, 6.643938064575195, 3.6516785621643066, 2.53956937789917, -1.2481461763381958, -3.6646339893341064, 0.8295065760612488, -0.43791237473487854, -1.1609108448028564, 1.319362759590149, -1.736490249633789, 0.6209238171577454, -3.109104871749878, -5.447250843048096, 0.5358840823173523, 3.6080455780029297, -3.2324888706207275, 1.1456212997436523, 2.6244795322418213, 2.3995277881622314, 0.3031962215900421, -3.628566265106201, -2.2381606101989746, -2.1603803634643555, 0.22981832921504974, 3.443389654159546, -1.9784921407699585, 1.8197091817855835, 0.7605484127998352, 0.40194305777549744, 1.2109014987945557, 4.681673526763916, -2.107703924179077, 4.120615482330322, -0.6934964060783386, -3.620155096054077, 3.103773593902588, 0.05875641107559204, -3.2607498168945312, -4.0092902183532715, 0.8504443168640137, 2.691652774810791, 0.6742413640022278, 0.0, -2.812472343444824, 6.285682201385498, -5.837983131408691, -1.9109034538269043, 1.4504064321517944, 6.08912467956543, -2.163862466812134, 1.9014395475387573, -2.483046293258667, 4.359772205352783, -4.706787109375, -5.939920902252197, -1.8942259550094604, -2.6100592613220215, 0.5759723782539368, -3.8234291076660156, -5.631179332733154, -1.848083257675171, -0.08632075041532516, -2.311086893081665, -0.33958879113197327, 6.517267227172852, -4.989461898803711, 1.520859956741333, -3.5071747303009033, 2.3267433643341064, 1.4626057147979736, -5.868229866027832, 1.2712736129760742, -5.119214057922363, 2.2751822471618652, -0.047403670847415924, -7.446548938751221, 1.4914932250976562, -1.867426872253418, -0.535090982913971, 1.668718695640564, 0.9766228199005127, -1.293057918548584, 0.7761412262916565, -0.6544790863990784, -11.565448760986328, 5.786663055419922, 2.3476457595825195, 1.277469277381897, 4.107424259185791, -1.5070255994796753, -1.0656936168670654, 0.23859380185604095, 2.0728819370269775, 0.3287844955921173, 0.6903980374336243, -5.9149394035339355, 2.5524840354919434, 0.9197436571121216, -0.9830920100212097, 7.8743791580200195, 3.6457090377807617, 4.661050319671631, -1.957159399986267, -3.8394577503204346, 2.080767869949341, 2.0945169925689697, 0.618719756603241, 1.2567527294158936, 0.6473135948181152, 3.5756144523620605, -0.862671434879303, -1.1524100303649902, -5.735513687133789, 0.8935216665267944, -0.8805076479911804, -0.16165190935134888, 0.7140055298805237, -0.20614467561244965, 0.47838690876960754, 0.22296275198459625, -0.7527691125869751, 4.2648138999938965, -0.721668004989624, -2.296334981918335, 0.6473135948181152, 1.3123239278793335, -0.7661664485931396, -1.2115952968597412, 7.090602397918701, -11.947102546691895, 1.6479780673980713, 0.8641867637634277, -1.8098220825195312, 2.9767065048217773, -2.261709451675415, -0.22960631549358368, -2.254868507385254, -6.704489231109619, -2.948481559753418, 0.9297617673873901, 0.23962728679180145, 0.4485110342502594, -1.1308541297912598, 1.2368437051773071, -1.2596874237060547, -3.3296284675598145, -1.7949321269989014, -2.2933425903320312, 1.391539454460144, 1.3157163858413696, -0.5532680153846741, 2.427839994430542, -1.8607662916183472, -1.3972203731536865, 5.133456707000732, -2.2512247562408447, -3.140033483505249, 0.6831191778182983, 0.7058045864105225, 1.8149526119232178, -2.958313226699829, -2.5775790214538574, 2.3320817947387695, 3.8977253437042236, -3.601027011871338, -2.4890565872192383, -2.938950300216675, -8.329254150390625, 2.1049015522003174, -3.656405448913574, -0.38855135440826416, 2.2067840099334717, 7.072483062744141, 7.685426712036133, 0.7793248891830444, -3.8713796138763428, 1.6152751445770264, 0.741039514541626, 1.910302758216858, 3.5989561080932617, 0.7152580618858337, 0.5785652995109558, 7.780070781707764, 5.280355453491211, -1.4887481927871704, -8.121050834655762, 5.519224643707275, 1.6646647453308105, 1.11172616481781, -0.3764212727546692, 2.560809373855591, -1.6335835456848145, 0.015310822054743767, 0.6325101852416992, -0.9295206665992737, 0.37797319889068604, -0.09141796827316284, 2.3630690574645996, -1.8353644609451294, 1.3269375562667847, 1.8892972469329834, 2.674481153488159, 1.303789734840393, 6.5146002769470215, -2.414060592651367, -0.6337020993232727, -5.371903419494629, 3.7586772441864014, 0.22332943975925446, 6.189764022827148, -1.7095348834991455, -0.28148993849754333, 0.8429502248764038, 2.1622753143310547, 1.608502745628357, -0.38832879066467285, -2.9924004077911377, -0.6584605574607849, -3.122363328933716, 6.439888954162598, 1.2140463590621948, 3.3794493675231934, 0.9815597534179688, 1.696474313735962, -12.325337409973145, -2.4258224964141846, 2.0566980838775635, 1.6845165491104126, 0.30483826994895935, -1.7304997444152832, 2.2037153244018555, 1.1676143407821655, 1.2242530584335327, 2.7760488986968994, -2.9955382347106934, 4.195370674133301, -5.599723815917969, -2.0530810356140137, -2.533022403717041, 1.5910251140594482, 1.7293903827667236, 1.518385648727417, 1.1697745323181152, 7.946264743804932, 1.841648817062378, 2.4229748249053955, -1.436667561531067, -0.14895036816596985, -2.454756736755371, 1.7195836305618286, -0.3316868245601654, -4.279247760772705, 7.796907901763916, 4.128780364990234, 2.810382843017578, -1.393880009651184, -3.599031925201416, 0.8587483167648315, 0.8831110596656799, -1.177504301071167, 1.4372533559799194, -2.2388477325439453, 3.8461241722106934, -0.8207522630691528, -8.09572696685791, 1.7264275550842285, 1.9980744123458862, 0.5179011225700378, 1.5116719007492065, 0.42305976152420044, 2.547344923019409, -0.4829482436180115, -6.090039253234863, 0.18202584981918335, -2.5642459392547607, 0.35267817974090576, 3.3703646659851074, -4.552515506744385, 2.030795097351074, 0.06240685284137726, -2.2427585124969482, 1.613822102546692, 3.3223745822906494, -1.906739354133606, 2.728245258331299, -0.7193375825881958, -2.85534930229187, 1.7203750610351562, -0.23701320588588715, -1.6827094554901123, -5.334874629974365, 3.1010689735412598, 1.3533090353012085, -2.1041228771209717, 0.0, -3.66046404838562, 7.1554951667785645, -5.971214294433594, -1.298620343208313, 0.7687414288520813, 4.356407165527344, 0.6057038307189941, 1.6323870420455933, -4.718386650085449, 1.0068235397338867, -2.843245267868042, -8.86470890045166, -2.8094911575317383, -5.533373832702637, 2.7157020568847656, -1.6321187019348145, -6.379491806030273, -4.263553142547607, -0.13088396191596985, -1.8107455968856812, -1.2446461915969849, 8.939136505126953, 4.040283679962158, -1.8878496885299683, -3.368072032928467, 1.6977214813232422, -0.7468935251235962, -4.340391159057617, 0.23811690509319305, -6.5640788078308105, 0.8063943386077881, -1.3594106435775757, 1.2923691272735596, 1.4396642446517944, -5.54619836807251, -1.7120912075042725, 2.1373963356018066, -0.15386608242988586, -1.694305419921875, -1.4427073001861572, -0.2877407371997833, -5.5785813331604, 6.200626373291016, -1.5867141485214233, 5.408798694610596, 0.7175984382629395, 2.2649779319763184, 3.0813872814178467, 2.056419849395752, 5.278254985809326, -0.7564653158187866, 2.850980043411255, -7.734401702880859, 2.707378625869751, -4.1858439445495605, 1.6092894077301025, 12.682990074157715, 2.1464662551879883, 3.697941303253174, -1.6236140727996826, 0.8821272253990173, 1.2159610986709595, 0.6889354586601257, -0.09709569811820984, 2.1563284397125244, -1.617180347442627, 2.0637786388397217, -1.8161118030548096, -4.045699119567871, -3.0159995555877686, 0.5581598877906799, -0.3918052315711975, -4.393197059631348, 0.7054161429405212, 2.142829656600952, 1.5943852663040161, -0.8773767352104187, -0.019605418667197227, 2.5712363719940186, -1.06521737575531, 0.0, -1.617180347442627, 2.3629374504089355, 3.8950586318969727, -0.4482772648334503, 5.3215484619140625, 2.012636423110962, 3.2167279720306396, 2.188516616821289, 0.7414640784263611, 0.7718252539634705, -1.6199363470077515, -0.7479016184806824, -2.1534037590026855, -7.045856952667236, -4.679076194763184, 0.4239678680896759, -1.9813050031661987, 2.209012746810913, 2.9395415782928467, 2.5714800357818604, 1.0650534629821777, -1.7886483669281006, -2.3389976024627686, 1.219687581062317, 4.618434906005859, 0.3769151568412781, -0.028656207025051117, 3.818502902984619, -0.031165435910224915, -6.21297025680542, 4.4636454582214355, -3.105424165725708, -7.793611526489258, 0.7435373663902283, -2.7753231525421143, 3.618117570877075, -4.761353969573975, 1.006852149963379, -1.383752465248108, 5.813971996307373, -2.7506608963012695, -4.035017490386963, -1.6678493022918701, -8.771799087524414, 1.91159188747406, -2.6293649673461914, -0.2269807755947113, 1.5828278064727783, 5.755521774291992, 7.421046257019043, -0.3564664125442505, -3.853515863418579, 5.4246110916137695, 1.6057355403900146, -1.0488473176956177, 5.755383491516113, -1.2812937498092651, 1.426537275314331, 5.936910152435303, 2.620358467102051, -0.3651593327522278, -1.3072996139526367, -1.141192078590393, 1.0109480619430542, -0.010861496441066265, -1.3873862028121948, 4.816333770751953, -1.9283785820007324, -1.3041882514953613, 2.4535462856292725, -1.3343027830123901, 4.1797075271606445, -0.16029749810695648, 4.0444769859313965, -3.4293437004089355, -0.19957734644412994, 0.16748271882534027, 3.1991450786590576, 1.4808051586151123, 8.206559181213379, -2.6039552688598633, -1.233974575996399, -6.010761737823486, 3.0084493160247803, 0.4248157739639282, 4.745233058929443, -1.3667012453079224, -0.2578360140323639, 0.9078007340431213, 1.3445945978164673, 2.312985420227051, -1.0038686990737915, -1.1517088413238525, -2.1181540489196777, -2.90270733833313, 6.2560601234436035, 1.3980361223220825, 0.9235186576843262, 0.4503943622112274, 1.207374095916748, -12.13119125366211, -4.633679389953613, 2.4003443717956543, -1.71286940574646, -3.5135812759399414, 1.4465413093566895, 1.2147555351257324, 0.9258017539978027, -0.8410079479217529, 1.0388504266738892, -2.547233819961548, 1.0522342920303345, -1.490269660949707, 2.324995756149292, -1.694832682609558, 1.5028787851333618, 1.7129182815551758, 1.824936866760254, 0.9444354176521301, 5.4732842445373535, 2.239095687866211, 3.427244186401367, -0.8385672569274902, 0.0972481220960617, -2.3854026794433594, 3.3166325092315674, 1.3010516166687012, -2.1006908416748047, 8.344955444335938, 4.901996612548828, 1.0187337398529053, -0.1558390110731125, -3.796592950820923, 0.38884449005126953, 0.7699674367904663, -1.5569947957992554, 0.4564931392669678, -1.5092852115631104, 2.4214065074920654, -0.5669164061546326, -8.977123260498047, 0.1319548338651657, 3.4249539375305176, 0.1961754411458969, 1.8848868608474731, 2.4999077320098877, 4.199044704437256, 0.9354860782623291, -7.592623710632324, -0.35591939091682434, -1.8116368055343628, 0.3334670066833496, 3.737504482269287, -4.706888675689697, 2.3268890380859375, 1.209911823272705, 1.0990688800811768, 2.268310308456421, 3.4849228858947754, -4.079667568206787, -0.17946785688400269, -0.6823127269744873, -4.417064189910889, 0.9115269780158997, -0.47334277629852295, -0.002105899853631854, -4.031031608581543, 0.709846019744873, 3.571868658065796, -2.8311469554901123, 3.820563316345215, -2.838350534439087, 5.660264492034912, -6.073001861572266, -1.7272112369537354, 1.0932804346084595, 9.706550598144531, -0.717529833316803, 1.57422935962677, -2.8593802452087402, 0.6190029382705688, -1.1250267028808594, -9.524598121643066, -4.476314067840576, -4.893792152404785, 2.4335474967956543, -0.8159785270690918, -5.806949615478516, -0.03724005073308945, 0.7550620436668396, -4.660696983337402, -0.08507666736841202, 